{"learner":{"attributes":{"best_iteration":"18","best_score":"0.46466172940232686","scikit_learn":"{\"_estimator_type\": \"classifier\"}"},"feature_names":[],"feature_types":[],"gradient_booster":{"model":{"cats":{"enc":[],"feature_segments":[],"sorted_idx":[]},"gbtree_model_param":{"num_parallel_tree":"1","num_trees":"39"},"iteration_indptr":[0,1,2,3,4,5,6,7,8,9,10,11,12,13,14,15,16,17,18,19,20,21,22,23,24,25,26,27,28,29,30,31,32,33,34,35,36,37,38,39],"tree_info":[0,0,0,0,0,0,0,0,0,0,0,0,0,0,0,0,0,0,0,0,0,0,0,0,0,0,0,0,0,0,0,0,0,0,0,0,0,0,0],"trees":[{"base_weights":[-1.196326E-7,6.907581E-1,-7.28342E-1,9.915381E-1,-8.139359E-1,-1.49468E0,-3.8627993E-2,4.2050916E-1,1.334561E0,4.543606E-1,-1.3336174E0,-1.3224959E0,-1.8789248E0,2.7207863E-1,-1.8525602E0,4.1514036E-1,-5.0257612E-2,5.629617E-1,6.103119E-2,2.1520285E-2,4.3704087E-1,-7.263681E-1,-4.7043887E-1,-5.7922846E-1,-3.0112344E-1,-7.6690066E-1,-4.612371E-1,1.6821153E-1,-4.9924812E-1,-2.836896E-1,-7.5547904E-1],"categories":[],"categories_nodes":[],"categories_segments":[],"categories_sizes":[],"default_left":[0,0,0,0,0,0,0,0,0,0,0,0,0,0,0,0,0,0,0,0,0,0,0,0,0,0,0,0,0,0,0],"id":0,"left_children":[1,3,5,7,9,11,13,15,17,19,21,23,25,27,29,-1,-1,-1,-1,-1,-1,-1,-1,-1,-1,-1,-1,-1,-1,-1,-1],"loss_changes":[9.139226E2,4.2276328E2,4.6730112E2,1.5172491E2,1.03341064E2,2.5224548E1,2.6336923E2,9.8994675E1,4.1564026E1,1.1714038E1,6.283539E0,1.9841644E1,1.3284607E0,9.058419E1,1.483902E0,0E0,0E0,0E0,0E0,0E0,0E0,0E0,0E0,0E0,0E0,0E0,0E0,0E0,0E0,0E0,0E0],"parents":[2147483647,0,0,1,1,2,2,3,3,4,4,5,5,6,6,7,7,8,8,9,9,10,10,11,11,12,12,13,13,14,14],"right_children":[2,4,6,8,10,12,14,16,18,20,22,24,26,28,30,-1,-1,-1,-1,-1,-1,-1,-1,-1,-1,-1,-1,-1,-1,-1,-1],"split_conditions":[-3.8432294E-1,1E0,1E0,1E0,-9.947662E-1,1E0,1E0,-9.174645E-1,1E0,1E0,-1.4963351E0,1E0,1E0,1.5634247E0,-2.625887E-1,4.1514036E-1,-5.0257612E-2,5.629617E-1,6.103119E-2,2.1520285E-2,4.3704087E-1,-7.263681E-1,-4.7043887E-1,-5.7922846E-1,-3.0112344E-1,-7.6690066E-1,-4.612371E-1,1.6821153E-1,-4.9924812E-1,-2.836896E-1,-7.5547904E-1],"split_indices":[38,8,7,7,40,3,3,40,3,21,39,23,32,38,38,0,0,0,0,0,0,0,0,0,0,0,0,0,0,0,0],"split_type":[0,0,0,0,0,0,0,0,0,0,0,0,0,0,0,0,0,0,0,0,0,0,0,0,0,0,0,0,0,0,0],"sum_hessian":[1.814553E3,9.313314E2,8.8322156E2,7.76462E2,1.548694E2,4.178184E2,4.654032E2,2.9222388E2,4.8423813E2,4.5049824E1,1.0981957E2,2.9159387E2,1.2622451E2,3.9806845E2,6.733474E1,1.3674947E2,1.554744E2,4.5594824E2,2.828989E1,2.834489E1,1.6704935E1,2.4444906E1,8.537467E1,2.3766408E2,5.392979E1,1.1833454E2,7.8899693E0,3.633136E2,3.4754864E1,2.6949897E0,6.463975E1],"tree_param":{"num_deleted":"0","num_feature":"41","num_nodes":"31","size_leaf_vector":"1"}},{"base_weights":[-4.2763324E-3,-4.248193E-1,5.85334E-1,2.3993929E-1,-7.454697E-1,7.058295E-1,-4.949768E-1,-1.1657611E-1,9.966846E-1,-5.4302174E-1,-1.371082E0,8.609381E-1,3.3229515E-2,1.854222E-1,-1.2383987E0,1.0249262E-1,-2.1702285E-1,2.864573E-1,4.6724153E-1,-3.9026242E-1,-1.0731653E-1,-3.4840038E-1,-5.698156E-1,3.5816878E-1,-2.8567913E-1,1.08043306E-1,-1.614698E-1,3.5207576E-1,-1.6318397E-1,-2.4774182E-1,-5.3253216E-1],"categories":[],"categories_nodes":[],"categories_segments":[],"categories_sizes":[],"default_left":[0,0,0,0,0,0,0,0,0,0,0,0,0,0,0,0,0,0,0,0,0,0,0,0,0,0,0,0,0,0,0],"id":1,"left_children":[1,3,5,7,9,11,13,15,17,19,21,23,25,27,29,-1,-1,-1,-1,-1,-1,-1,-1,-1,-1,-1,-1,-1,-1,-1,-1],"loss_changes":[4.2615482E2,2.1400609E2,9.348947E1,8.838675E1,8.499667E1,6.717047E1,3.6844284E1,3.5600796E1,4.207283E0,6.072641E1,3.1662292E0,2.906778E1,1.270895E1,1.629917E1,1.1729088E0,0E0,0E0,0E0,0E0,0E0,0E0,0E0,0E0,0E0,0E0,0E0,0E0,0E0,0E0,0E0,0E0],"parents":[2147483647,0,0,1,1,2,2,3,3,4,4,5,5,6,6,7,7,8,8,9,9,10,10,11,11,12,12,13,13,14,14],"right_children":[2,4,6,8,10,12,14,16,18,20,22,24,26,28,30,-1,-1,-1,-1,-1,-1,-1,-1,-1,-1,-1,-1,-1,-1,-1,-1],"split_conditions":[1E0,-7.901037E-1,1E0,1E0,1E0,4.6781665E-1,-4.6547908E-1,-1.1553063E0,4.8279187E-1,1E0,1E0,1E0,1E0,1E0,-2.625887E-1,1.0249262E-1,-2.1702285E-1,2.864573E-1,4.6724153E-1,-3.9026242E-1,-1.0731653E-1,-3.4840038E-1,-5.698156E-1,3.5816878E-1,-2.8567913E-1,1.08043306E-1,-1.614698E-1,3.5207576E-1,-1.6318397E-1,-2.4774182E-1,-5.3253216E-1],"split_indices":[23,38,3,7,3,38,38,38,39,21,4,8,10,2,38,0,0,0,0,0,0,0,0,0,0,0,0,0,0,0,0],"split_type":[0,0,0,0,0,0,0,0,0,0,0,0,0,0,0,0,0,0,0,0,0,0,0,0,0,0,0,0,0,0,0],"sum_hessian":[1.716665E3,1.0021531E3,7.14512E2,3.261808E2,6.759723E2,6.431258E2,7.138622E1,2.222983E2,1.0388249E2,5.1211884E2,1.638535E2,5.223796E2,1.2074621E2,3.7664906E1,3.3721313E1,1.18760574E2,1.0353772E2,4.1364258E1,6.2518238E1,1.9790878E2,3.1421002E2,1.7493944E1,1.4635956E2,5.1161063E2,1.0768966E1,7.8543564E1,4.2202644E1,1.7127577E1,2.053733E1,5.4019594E0,2.8319355E1],"tree_param":{"num_deleted":"0","num_feature":"41","num_nodes":"31","size_leaf_vector":"1"}},{"base_weights":[-6.113742E-3,-3.8350406E-1,3.3504483E-1,1.8201402E-1,-7.0986104E-1,5.215818E-1,-4.0046564E-1,3.2725745E-1,-4.6057197E-1,-4.8672032E-1,-1.0103443E0,8.565176E-1,3.3281276E-1,-2.4617538E-1,-4.8856583E-1,1.9973896E-1,-3.0613292E-2,1.1218472E-1,-3.2512268E-1,-3.7713012E-1,-9.646075E-2,-4.2795926E-1,6.318888E-2,3.6458007E-1,2.365492E-2,1.7102173E-1,-3.0414376E-1,1.4978066E-2,-2.4164234E-1],"categories":[],"categories_nodes":[],"categories_segments":[],"categories_sizes":[],"default_left":[0,0,0,0,0,0,0,0,0,0,0,0,0,0,0,0,0,0,0,0,0,0,0,0,0,0,0,0,0],"id":2,"left_children":[1,3,5,7,9,11,13,15,17,19,21,23,25,27,-1,-1,-1,-1,-1,-1,-1,-1,-1,-1,-1,-1,-1,-1,-1],"loss_changes":[2.0470123E2,1.3944759E2,1.1477772E2,2.6005169E1,3.161496E1,4.1857788E1,2.1169262E1,1.5779516E1,1.3666745E1,3.0766335E1,1.4302292E1,1.0442017E1,4.464496E1,1.4634731E1,0E0,0E0,0E0,0E0,0E0,0E0,0E0,0E0,0E0,0E0,0E0,0E0,0E0,0E0,0E0],"parents":[2147483647,0,0,1,1,2,2,3,3,4,4,5,5,6,6,7,7,8,8,9,9,10,10,11,11,12,12,13,13],"right_children":[2,4,6,8,10,12,14,16,18,20,22,24,26,28,-1,-1,-1,-1,-1,-1,-1,-1,-1,-1,-1,-1,-1,-1,-1],"split_conditions":[1E0,-9.118379E-1,9.1417545E-1,1E0,5.083947E-1,-9.52416E-1,1E0,1E0,-9.861286E-1,-1.2731253E0,1E0,1E0,1E0,1E0,-4.8856583E-1,1.9973896E-1,-3.0613292E-2,1.1218472E-1,-3.2512268E-1,-3.7713012E-1,-9.646075E-2,-4.2795926E-1,6.318888E-2,3.6458007E-1,2.365492E-2,1.7102173E-1,-3.0414376E-1,1.4978066E-2,-2.4164234E-1],"split_indices":[7,38,38,3,38,38,3,8,40,39,32,10,3,10,0,0,0,0,0,0,0,0,0,0,0,0,0,0,0],"split_type":[0,0,0,0,0,0,0,0,0,0,0,0,0,0,0,0,0,0,0,0,0,0,0,0,0,0,0,0,0],"sum_hessian":[1.587915E3,7.5386444E2,8.3405054E2,2.7601767E2,4.7784677E2,6.6554803E2,1.6850255E2,2.2553159E2,5.0486084E1,2.7571722E2,2.0212955E2,2.3862126E2,4.2692676E2,1.4293837E2,2.5564167E1,1.5797023E2,6.756135E1,1.633151E1,3.4154575E1,9.550056E1,1.8021667E2,1.9240608E2,9.723478E0,2.2310802E2,1.5513248E1,3.934377E2,3.3489037E1,8.02469E1,6.269147E1],"tree_param":{"num_deleted":"0","num_feature":"41","num_nodes":"29","size_leaf_vector":"1"}},{"base_weights":[-8.255325E-3,1.0606239E-1,-6.718356E-1,2.626533E-1,-2.9430506E-1,-2.5521616E-2,-8.263018E-1,-1.1970924E-1,4.395386E-1,-6.5539896E-1,-8.048463E-2,1.5087736E-1,-1.2898004E0,-3.439561E-1,-9.4868004E-1,3.6891993E-2,-1.7899829E-1,3.3520088E-1,1.4426154E-1,-3.0126017E-1,3.139515E-2,3.8565972E-4,-3.4956938E-1,2.2294895E-1,-1.7070916E-1,-6.583291E-1,-1.1168286E-3,-2.2568755E-1,2.5972295E-1,-4.2152748E-1,-2.3963992E-1],"categories":[],"categories_nodes":[],"categories_segments":[],"categories_sizes":[],"default_left":[0,0,0,0,0,0,0,0,0,0,0,0,0,0,0,0,0,0,0,0,0,0,0,0,0,0,0,0,0,0,0],"id":3,"left_children":[1,3,5,7,9,11,13,15,17,19,21,23,25,27,29,-1,-1,-1,-1,-1,-1,-1,-1,-1,-1,-1,-1,-1,-1,-1,-1],"loss_changes":[1.10688896E2,7.8116875E1,2.13862E1,6.0607506E1,2.700475E1,9.649243E0,9.887718E0,1.9768936E1,1.8945816E1,9.399174E0,1.4298892E1,9.1838875E0,2.4218397E0,8.3706E0,4.4205246E0,0E0,0E0,0E0,0E0,0E0,0E0,0E0,0E0,0E0,0E0,0E0,0E0,0E0,0E0,0E0,0E0],"parents":[2147483647,0,0,1,1,2,2,3,3,4,4,5,5,6,6,7,7,8,8,9,9,10,10,11,11,12,12,13,13,14,14],"right_children":[2,4,6,8,10,12,14,16,18,20,22,24,26,28,30,-1,-1,-1,-1,-1,-1,-1,-1,-1,-1,-1,-1,-1,-1,-1,-1],"split_conditions":[1E0,4.6781665E-1,-1.1147283E0,1E0,1E0,1E0,1E0,-7.901037E-1,-1.2364625E0,1E0,1.6040027E0,1E0,1E0,9.887341E-1,1E0,3.6891993E-2,-1.7899829E-1,3.3520088E-1,1.4426154E-1,-3.0126017E-1,3.139515E-2,3.8565972E-4,-3.4956938E-1,2.2294895E-1,-1.7070916E-1,-6.583291E-1,-1.1168286E-3,-2.2568755E-1,2.5972295E-1,-4.2152748E-1,-2.3963992E-1],"split_indices":[3,38,38,21,7,12,2,38,38,33,38,8,23,39,23,0,0,0,0,0,0,0,0,0,0,0,0,0,0,0,0],"split_type":[0,0,0,0,0,0,0,0,0,0,0,0,0,0,0,0,0,0,0,0,0,0,0,0,0,0,0,0,0,0,0],"sum_hessian":[1.457201E3,1.2437716E3,2.134295E2,8.943279E2,3.494437E2,4.1394176E1,1.7203532E2,2.8297052E2,6.1135736E2,1.2919598E2,2.2024771E2,3.7098637E1,4.29554E0,3.558601E1,1.3644931E2,1.7229024E2,1.1068028E2,9.94403E1,5.1191705E2,1.1398703E2,1.5208963E1,2.0064928E2,1.9598442E1,2.1795881E1,1.5302754E1,3.1463692E0,1.1491706E0,2.9480476E1,6.1055355E0,1.03351204E2,3.309811E1],"tree_param":{"num_deleted":"0","num_feature":"41","num_nodes":"31","size_leaf_vector":"1"}},{"base_weights":[-1.0264924E-2,-2.009492E-1,2.5271347E-1,-9.9085934E-2,-6.4855474E-1,3.4544587E-1,-1.378691E-1,-8.882787E-3,-5.747871E-1,-8.4424275E-1,-2.170727E-2,1.7843042E-1,5.2475554E-1,-4.6791068E-1,1.40011E-1,-1.6647713E-1,3.2456286E-2,1.7768668E-1,-2.66906E-1,-4.35326E-1,-2.0364581E-1,-4.7975406E-1,7.533793E-2,1.7456238E-1,-3.8621247E-2,2.286516E-1,-4.879696E-2,-2.4074487E-2,-4.1587606E-1,2.2491482E-1,-1.0450001E-1],"categories":[],"categories_nodes":[],"categories_segments":[],"categories_sizes":[],"default_left":[0,0,0,0,0,0,0,0,0,0,0,0,0,0,0,0,0,0,0,0,0,0,0,0,0,0,0,0,0,0,0],"id":4,"left_children":[1,3,5,7,9,11,13,15,17,19,21,23,25,27,29,-1,-1,-1,-1,-1,-1,-1,-1,-1,-1,-1,-1,-1,-1,-1,-1],"loss_changes":[6.848833E1,3.6032253E1,2.0840809E1,2.7718813E1,1.7962887E1,1.3808666E1,1.0232985E1,1.9985582E1,9.999836E0,8.581314E0,9.106724E0,1.7199886E1,6.8408356E0,1.1804981E1,1.0475696E1,0E0,0E0,0E0,0E0,0E0,0E0,0E0,0E0,0E0,0E0,0E0,0E0,0E0,0E0,0E0,0E0],"parents":[2147483647,0,0,1,1,2,2,3,3,4,4,5,5,6,6,7,7,8,8,9,9,10,10,11,11,12,12,13,13,14,14],"right_children":[2,4,6,8,10,12,14,16,18,20,22,24,26,28,30,-1,-1,-1,-1,-1,-1,-1,-1,-1,-1,-1,-1,-1,-1,-1,-1],"split_conditions":[1E0,1.1170658E0,1E0,1E0,1E0,1E0,1E0,-1.4616135E0,-9.9657655E-1,8.4323436E-1,1.2793782E0,-9.52416E-1,1E0,-3.0316678E-1,8.426097E-1,-1.6647713E-1,3.2456286E-2,1.7768668E-1,-2.66906E-1,-4.35326E-1,-2.0364581E-1,-4.7975406E-1,7.533793E-2,1.7456238E-1,-3.8621247E-2,2.286516E-1,-4.879696E-2,-2.4074487E-2,-4.1587606E-1,2.2491482E-1,-1.0450001E-1],"split_indices":[23,38,16,3,35,18,6,39,40,39,38,38,3,38,40,0,0,0,0,0,0,0,0,0,0,0,0,0,0,0,0],"split_type":[0,0,0,0,0,0,0,0,0,0,0,0,0,0,0,0,0,0,0,0,0,0,0,0,0,0,0,0,0,0,0],"sum_hessian":[1.3637701E3,7.9068463E2,5.730855E2,6.450985E2,1.4558612E2,4.6322244E2,1.09863045E2,5.4312836E2,1.0197013E2,1.1068567E2,3.4900444E1,2.4086618E2,2.2235626E2,4.9905647E1,5.99574E1,9.76571E1,4.4547128E2,8.167696E0,9.380243E1,6.2742886E1,4.7942783E1,4.5697494E0,3.0330694E1,1.2397352E2,1.1689266E2,2.0743822E2,1.4918055E1,2.9777308E1,2.0128338E1,2.9018175E1,3.0939228E1],"tree_param":{"num_deleted":"0","num_feature":"41","num_nodes":"31","size_leaf_vector":"1"}},{"base_weights":[-9.887939E-3,8.830281E-2,-3.0449757E-1,2.0174024E-1,-4.038444E-1,-2.3723756E-1,-9.179374E-1,3.050975E-1,-1.3876864E-1,-1.2179982E-1,-8.561111E-1,-3.5743883E-1,1.05747476E-1,-9.8958385E-1,7.135054E-2,6.6512324E-2,1.8977804E-1,-2.6045252E-2,-2.9116294E-1,8.4189616E-2,-1.3124466E-1,-4.1052404E-1,-3.160996E-2,-2.1069562E-1,-6.562092E-2,3.2220933E-1,-4.110706E-2,-2.5861734E-1,-4.5179293E-1,-2.4777403E-1,2.9258165E-1],"categories":[],"categories_nodes":[],"categories_segments":[],"categories_sizes":[],"default_left":[0,0,0,0,0,0,0,0,0,0,0,0,0,0,0,0,0,0,0,0,0,0,0,0,0,0,0,0,0,0,0],"id":5,"left_children":[1,3,5,7,9,11,13,15,17,19,21,23,25,27,29,-1,-1,-1,-1,-1,-1,-1,-1,-1,-1,-1,-1,-1,-1,-1,-1],"loss_changes":[3.75382E1,5.4421165E1,1.3165848E1,2.7904919E1,2.319554E1,1.2145004E1,2.317669E0,1.42058525E1,7.981946E0,7.86112E0,9.176014E0,7.040783E0,1.1315503E1,6.9166374E-1,1.854657E0,0E0,0E0,0E0,0E0,0E0,0E0,0E0,0E0,0E0,0E0,0E0,0E0,0E0,0E0,0E0,0E0],"parents":[2147483647,0,0,1,1,2,2,3,3,4,4,5,5,6,6,7,7,8,8,9,9,10,10,11,11,12,12,13,13,14,14],"right_children":[2,4,6,8,10,12,14,16,18,20,22,24,26,28,30,-1,-1,-1,-1,-1,-1,-1,-1,-1,-1,-1,-1,-1,-1,-1,-1],"split_conditions":[1E0,1E0,1.5634247E0,1E0,-8.2578874E-1,1.0813248E0,1.6980453E0,1E0,1E0,-9.947662E-1,1E0,1E0,5.0908273E-1,1.6040027E0,1E0,6.6512324E-2,1.8977804E-1,-2.6045252E-2,-2.9116294E-1,8.4189616E-2,-1.3124466E-1,-4.1052404E-1,-3.160996E-2,-2.1069562E-1,-6.562092E-2,3.2220933E-1,-4.110706E-2,-2.5861734E-1,-4.5179293E-1,-2.4777403E-1,2.9258165E-1],"split_indices":[10,8,38,16,40,39,39,20,28,40,28,2,40,38,0,0,0,0,0,0,0,0,0,0,0,0,0,0,0,0,0],"split_type":[0,0,0,0,0,0,0,0,0,0,0,0,0,0,0,0,0,0,0,0,0,0,0,0,0,0,0,0,0,0,0],"sum_hessian":[1.2957157E3,9.723428E2,3.233729E2,7.906842E2,1.8165858E2,2.926701E2,3.070279E1,6.0664777E2,1.8403642E2,1.1266639E2,6.89922E1,2.166882E2,7.598189E1,2.8629107E1,2.073683E0,3.344644E2,2.7218338E2,1.645718E2,1.946463E1,4.3150505E1,6.951588E1,5.6333263E1,1.2658938E1,1.14620186E2,1.0206802E2,1.6785772E1,5.9196114E1,9.921771E0,1.8707336E1,1.0433972E0,1.0302858E0],"tree_param":{"num_deleted":"0","num_feature":"41","num_nodes":"31","size_leaf_vector":"1"}},{"base_weights":[-9.680973E-3,4.134854E-2,-3.7014082E-1,3.877574E-1,-6.084725E-3,-1.03565775E-1,-7.529469E-1,1.2145112E-1,7.787222E-1,-1.4309582E-1,1.3461463E-1,-3.424833E-1,1.4852883E-1,-8.834246E-1,-1.7759559E-1,7.7634E-3,3.548587E-1,3.4327504E-1,-3.1676242E-1,-3.8445458E-1,-4.6231877E-2,1.654932E-1,-5.8084102E-3,5.5736016E-2,-2.3033404E-1,1.3199447E-1,-5.150796E-1,-3.8573748E-1,-7.040884E-2,4.1598257E-1,-2.0184298E-1],"categories":[],"categories_nodes":[],"categories_segments":[],"categories_sizes":[],"default_left":[0,0,0,0,0,0,0,0,0,0,0,0,0,0,0,0,0,0,0,0,0,0,0,0,0,0,0,0,0,0,0],"id":6,"left_children":[1,3,5,7,9,11,13,15,17,19,21,23,25,27,29,-1,-1,-1,-1,-1,-1,-1,-1,-1,-1,-1,-1,-1,-1,-1,-1],"loss_changes":[2.283649E1,1.7875029E1,1.5633045E1,1.3546501E1,1.8481266E1,5.5870485E0,4.5756874E0,6.164555E0,7.2820244E0,1.0821594E1,1.9695648E1,5.420269E0,1.2262774E1,2.7574272E0,5.6630883E0,0E0,0E0,0E0,0E0,0E0,0E0,0E0,0E0,0E0,0E0,0E0,0E0,0E0,0E0,0E0,0E0],"parents":[2147483647,0,0,1,1,2,2,3,3,4,4,5,5,6,6,7,7,8,8,9,9,10,10,11,11,12,12,13,13,14,14],"right_children":[2,4,6,8,10,12,14,16,18,20,22,24,26,28,30,-1,-1,-1,-1,-1,-1,-1,-1,-1,-1,-1,-1,-1,-1,-1,-1],"split_conditions":[1E0,-1.2364625E0,-3.8432294E-1,1E0,1E0,-4.7783703E-1,1E0,1E0,1E0,-1.4979886E0,-2.625887E-1,-9.861286E-1,1E0,1E0,1E0,7.7634E-3,3.548587E-1,3.4327504E-1,-3.1676242E-1,-3.8445458E-1,-4.6231877E-2,1.654932E-1,-5.8084102E-3,5.5736016E-2,-2.3033404E-1,1.3199447E-1,-5.150796E-1,-3.8573748E-1,-7.040884E-2,4.1598257E-1,-2.0184298E-1],"split_indices":[3,38,38,7,6,39,27,1,16,39,38,40,22,32,4,0,0,0,0,0,0,0,0,0,0,0,0,0,0,0,0],"split_type":[0,0,0,0,0,0,0,0,0,0,0,0,0,0,0,0,0,0,0,0,0,0,0,0,0,0,0,0,0,0,0],"sum_hessian":[1.2396802E3,1.0867208E3,1.529594E2,1.3001756E2,9.5670325E2,9.091758E1,6.2041824E1,7.811801E1,5.189955E1,4.8469598E2,4.7200726E2,4.649466E1,4.442292E1,5.0136467E1,1.1905356E1,6.983641E1,8.281602E0,4.983193E1,2.0676253E0,1.46688385E1,4.7002713E2,1.6375449E2,3.0825278E2,1.5302021E1,3.119264E1,4.01238E1,4.2991195E0,4.4664158E1,5.472307E0,2.0589943E0,9.846362E0],"tree_param":{"num_deleted":"0","num_feature":"41","num_nodes":"31","size_leaf_vector":"1"}},{"base_weights":[-7.229347E-3,1.7843308E-2,-4.9577057E-1,-1.2973839E-1,9.275979E-2,-8.3374715E-1,-5.9231583E-2,-1.6157815E-1,6.3461006E-1,1.922887E-2,3.2827294E-1,-4.3794815E-4,-1.0242503E0,3.9318153E-1,-5.5547136E-1,-2.7712673E-2,-1.8699132E-1,9.070404E-1,-5.854593E-2,8.7168604E-2,-4.787244E-2,3.9179987E-1,9.733656E-2,4.173081E-1,-3.5463175E-1,-4.4219357E-1,-1.3400887E-3,-1.5225415E-1,3.3634904E-1,-4.482847E-1,-2.4570456E-2],"categories":[],"categories_nodes":[],"categories_segments":[],"categories_sizes":[],"default_left":[0,0,0,0,0,0,0,0,0,0,0,0,0,0,0,0,0,0,0,0,0,0,0,0,0,0,0,0,0,0,0],"id":7,"left_children":[1,3,5,7,9,11,13,15,17,19,21,23,25,27,29,-1,-1,-1,-1,-1,-1,-1,-1,-1,-1,-1,-1,-1,-1,-1,-1],"loss_changes":[1.4666479E1,1.2607224E1,8.574315E0,9.447523E0,1.3089156E1,5.2172146E0,6.1862845E0,1.0397891E1,2.0174301E1,1.5960846E1,9.709663E0,7.506498E0,2.2148304E0,5.340111E0,3.5870466E0,0E0,0E0,0E0,0E0,0E0,0E0,0E0,0E0,0E0,0E0,0E0,0E0,0E0,0E0,0E0,0E0],"parents":[2147483647,0,0,1,1,2,2,3,3,4,4,5,5,6,6,7,7,8,8,9,9,10,10,11,11,12,12,13,13,14,14],"right_children":[2,4,6,8,10,12,14,16,18,20,22,24,26,28,30,-1,-1,-1,-1,-1,-1,-1,-1,-1,-1,-1,-1,-1,-1,-1,-1],"split_conditions":[1.5228466E0,1E0,1.2383984E0,1E0,1.0267625E0,1E0,2.3953393E0,1E0,5.1255316E-1,-8.712598E-1,-4.668944E-1,1E0,1E0,1E0,2.4915955E0,-2.7712673E-2,-1.8699132E-1,9.070404E-1,-5.854593E-2,8.7168604E-2,-4.787244E-2,3.9179987E-1,9.733656E-2,4.173081E-1,-3.5463175E-1,-4.4219357E-1,-1.3400887E-3,-1.5225415E-1,3.3634904E-1,-4.482847E-1,-2.4570456E-2],"split_indices":[38,21,39,36,39,4,40,12,39,38,40,16,33,0,40,0,0,0,0,0,0,0,0,0,0,0,0,0,0,0,0],"split_type":[0,0,0,0,0,0,0,0,0,0,0,0,0,0,0,0,0,0,0,0,0,0,0,0,0,0,0,0,0,0,0],"sum_hessian":[1.1956366E3,1.1381866E3,5.7449936E1,3.829879E2,7.551987E2,3.186757E1,2.5582363E1,3.684292E2,1.4558706E1,5.7633844E2,1.7886029E2,6.1161723E0,2.57514E1,1.3490756E1,1.2091608E1,2.839746E2,8.445459E1,4.0942407E0,1.0464465E1,2.3690617E2,3.3943228E2,1.942016E1,1.5944012E2,2.7269819E0,3.3891904E0,2.3776625E1,1.9747745E0,4.9993505E0,8.4914055E0,5.0478687E0,7.0437393E0],"tree_param":{"num_deleted":"0","num_feature":"41","num_nodes":"31","size_leaf_vector":"1"}},{"base_weights":[-5.55367E-3,5.387402E-2,-1.7193466E-1,1.1022274E-1,-2.1844395E-1,-2.6626104E-1,1.06401555E-1,3.8800332E-1,6.1163027E-2,-3.4592774E-2,-6.2429655E-1,-1.3253497E-1,-6.466359E-1,5.1778674E-1,-7.6158345E-2,-4.2024395E-1,1.6833875E-1,-2.7029881E-2,8.955807E-2,-5.5654973E-2,3.1184876E-1,-3.420179E-1,5.7824064E-2,1.9011425E-2,-1.3620545E-1,-3.559967E-1,-1.458038E-1,2.9414412E-1,-1.2114181E-1,-5.7273537E-1,3.3193745E-2],"categories":[],"categories_nodes":[],"categories_segments":[],"categories_sizes":[],"default_left":[0,0,0,0,0,0,0,0,0,0,0,0,0,0,0,0,0,0,0,0,0,0,0,0,0,0,0,0,0,0,0],"id":8,"left_children":[1,3,5,7,9,11,13,15,17,19,21,23,25,27,29,-1,-1,-1,-1,-1,-1,-1,-1,-1,-1,-1,-1,-1,-1,-1,-1],"loss_changes":[1.1592583E1,1.3281128E1,8.129126E0,9.740477E0,1.1055649E1,1.1650948E1,5.9584713E0,5.51482E0,1.2797209E1,8.895645E0,8.324526E0,6.456575E0,3.7785778E0,4.570896E0,1.2084137E1,0E0,0E0,0E0,0E0,0E0,0E0,0E0,0E0,0E0,0E0,0E0,0E0,0E0,0E0,0E0,0E0],"parents":[2147483647,0,0,1,1,2,2,3,3,4,4,5,5,6,6,7,7,8,8,9,9,10,10,11,11,12,12,13,13,14,14],"right_children":[2,4,6,8,10,12,14,16,18,20,22,24,26,28,30,-1,-1,-1,-1,-1,-1,-1,-1,-1,-1,-1,-1,-1,-1,-1,-1],"split_conditions":[1E0,1E0,1.289654E0,-9.5685697E-1,-8.2578874E-1,6.301289E-1,1E0,-9.947662E-1,1E0,-7.0894754E-1,1E0,1E0,1.2793782E0,1.4516878E0,9.459331E-1,-4.2024395E-1,1.6833875E-1,-2.7029881E-2,8.955807E-2,-5.5654973E-2,3.1184876E-1,-3.420179E-1,5.7824064E-2,1.9011425E-2,-1.3620545E-1,-3.559967E-1,-1.458038E-1,2.9414412E-1,-1.2114181E-1,-5.7273537E-1,3.3193745E-2],"split_indices":[16,8,39,40,40,38,12,40,2,38,28,0,38,39,40,0,0,0,0,0,0,0,0,0,0,0,0,0,0,0,0],"split_type":[0,0,0,0,0,0,0,0,0,0,0,0,0,0,0,0,0,0,0,0,0,0,0,0,0,0,0,0,0,0,0],"sum_hessian":[1.1704951E3,8.629458E2,3.0754935E2,7.1549005E2,1.4745578E2,2.297365E2,7.781286E1,1.0636019E2,6.091299E2,1.0223057E2,4.5225204E1,1.7097595E2,5.8760548E1,2.33528E1,5.446006E1,1.6823301E0,1.0467786E2,3.4041312E2,2.6871674E2,9.1332634E1,1.0897939E1,3.4699223E1,1.0525983E1,9.205133E1,7.892462E1,3.0391195E1,2.8369352E1,1.854101E1,4.8117886E0,4.881248E0,4.957881E1],"tree_param":{"num_deleted":"0","num_feature":"41","num_nodes":"31","size_leaf_vector":"1"}},{"base_weights":[-5.8672205E-3,3.0061731E-2,-2.851041E-1,8.980343E-2,-1.50057E-1,-1.6904044E-1,-4.0340233E-1,2.0386634E-2,2.2853206E-1,-5.858764E-2,-6.052161E-1,-2.0054443E-1,1.0146183E0,-2.5199035E-2,6.638342E-2,3.2399234E-1,6.973346E-2,-8.7072905E-3,-3.074625E-1,-3.1915075E-1,2.8409255E-1,-3.3254646E-2,-2.0515572E-1,8.763822E-1,-2.3278216E-1],"categories":[],"categories_nodes":[],"categories_segments":[],"categories_sizes":[],"default_left":[0,0,0,0,0,1,0,0,0,0,0,0,0,0,0,0,0,0,0,0,0,0,0,0,0],"id":9,"left_children":[1,3,5,7,9,11,-1,13,15,17,19,21,23,-1,-1,-1,-1,-1,-1,-1,-1,-1,-1,-1,-1],"loss_changes":[1.151814E1,1.0960553E1,1.0818049E1,7.3582287E0,1.0529329E1,4.4539213E0,0E0,6.2093306E0,7.8912096E0,5.5364227E0,1.1300996E1,4.059584E0,7.135008E0,0E0,0E0,0E0,0E0,0E0,0E0,0E0,0E0,0E0,0E0,0E0,0E0],"parents":[2147483647,0,0,1,1,2,2,3,3,4,4,5,5,7,7,8,8,9,9,10,10,11,11,12,12],"right_children":[2,4,6,8,10,12,-1,14,16,18,20,22,24,-1,-1,-1,-1,-1,-1,-1,-1,-1,-1,-1,-1],"split_conditions":[1E0,1E0,9.1417545E-1,1E0,1E0,1.0439125E0,-4.0340233E-1,1E0,1E0,1.6040027E0,1E0,1E0,1E0,-2.5199035E-2,6.638342E-2,3.2399234E-1,6.973346E-2,-8.7072905E-3,-3.074625E-1,-3.1915075E-1,2.8409255E-1,-3.3254646E-2,-2.0515572E-1,8.763822E-1,-2.3278216E-1],"split_indices":[3,10,38,2,24,40,0,6,4,38,1,18,10,0,0,0,0,0,0,0,0,0,0,0,0],"split_type":[0,0,0,0,0,0,0,0,0,0,0,0,0,0,0,0,0,0,0,0,0,0,0,0,0],"sum_hessian":[1.1462068E3,1.01632965E3,1.2987712E2,7.6357043E2,2.5275926E2,1.1298355E2,1.6893578E1,5.0968304E2,2.5388737E2,2.1140396E2,4.13553E1,1.108634E2,2.1201437E0,3.244207E2,1.8526233E2,2.0458683E1,2.334287E2,2.0196222E2,9.441754E0,3.6415356E1,4.9399457E0,8.149593E1,2.9367476E1,1.0063734E0,1.1137701E0],"tree_param":{"num_deleted":"0","num_feature":"41","num_nodes":"25","size_leaf_vector":"1"}},{"base_weights":[-5.24135E-3,-8.678472E-1,3.1941882E-3,-3.412876E-1,-3.8208026E-1,9.732772E-2,-8.887422E-2,3.7664082E-2,-2.3772697E-1,3.9936326E-2,4.4545123E-1,-4.3055546E-1,-1.9253736E-2,4.974111E-2,-4.9687542E-2,1.3162403E-1,3.7329802E-1,-2.6216233E-1,-9.259424E-3,5.7800612E-3,-2.17905E-1],"categories":[],"categories_nodes":[],"categories_segments":[],"categories_sizes":[],"default_left":[0,0,0,0,0,0,1,0,0,0,0,0,0,0,0,0,0,0,0,0,0],"id":10,"left_children":[1,3,5,7,-1,9,11,-1,-1,13,15,17,19,-1,-1,-1,-1,-1,-1,-1,-1],"loss_changes":[8.221884E0,1.773243E-1,9.711849E0,3.9894825E-1,0E0,1.1052036E1,1.3468276E1,0E0,0E0,6.6219363E0,4.1393356E0,8.765089E0,8.362103E0,0E0,0E0,0E0,0E0,0E0,0E0,0E0,0E0],"parents":[2147483647,0,0,1,1,2,2,3,3,5,5,6,6,9,9,10,10,11,11,12,12],"right_children":[2,4,6,8,-1,10,12,-1,-1,14,16,18,20,-1,-1,-1,-1,-1,-1,-1,-1],"split_conditions":[-1.5079089E0,-1.5194829E0,-4.7646987E-1,-1.1958845E0,-3.8208026E-1,6.4317226E-1,-2.1082173E-1,3.7664082E-2,-2.3772697E-1,-2.0667844E-1,-5.5835205E-1,1E0,1E0,4.974111E-2,-4.9687542E-2,1.3162403E-1,3.7329802E-1,-2.6216233E-1,-9.259424E-3,5.7800612E-3,-2.17905E-1],"split_indices":[39,39,40,38,0,39,40,0,0,39,40,12,3,0,0,0,0,0,0,0,0],"split_type":[0,0,0,0,0,0,0,0,0,0,0,0,0,0,0,0,0,0,0,0,0],"sum_hessian":[1.128535E3,9.942569E0,1.1185925E3,2.1129353E0,7.8296337E0,5.53065E2,5.655275E2,1.0073025E0,1.1056327E0,4.757482E2,7.7316795E1,9.484853E1,4.70679E2,3.143413E2,1.6140689E2,6.3774353E1,1.3542439E1,6.0725204E1,3.4123333E1,4.4322495E2,2.7454056E1],"tree_param":{"num_deleted":"0","num_feature":"41","num_nodes":"21","size_leaf_vector":"1"}},{"base_weights":[-3.3770849E-3,1.038823E-2,-4.4757652E-1,-2.1420272E-2,1.4365707E-1,-7.214885E-1,-1.856111E-1,-6.197692E-2,1.2299209E-1,6.05014E-2,4.0307024E-1,-9.36228E-1,3.606855E-1,1.8755884E-1,-6.989015E-1,-5.607506E-3,-1.099044E-1,2.2671674E-1,6.2507773E-3,-3.910617E-2,1.2943326E-1,9.409194E-2,3.5138822E-1,-1.06767215E-1,-4.23946E-1,2.4075818E-1,-1.8945156E-3,-9.7700916E-2,2.8236538E-1,-3.986177E-1,1.2073882E-1],"categories":[],"categories_nodes":[],"categories_segments":[],"categories_sizes":[],"default_left":[0,0,0,0,0,0,0,0,0,0,0,0,0,0,0,0,0,0,0,0,0,0,0,0,0,0,0,0,0,0,0],"id":11,"left_children":[1,3,5,7,9,11,13,15,17,19,21,23,25,27,29,-1,-1,-1,-1,-1,-1,-1,-1,-1,-1,-1,-1,-1,-1,-1,-1],"loss_changes":[6.8568864E0,4.6149387E0,2.2847142E0,5.1568513E0,4.500554E0,4.086342E0,3.6890972E0,7.007524E0,9.19232E0,6.6944656E0,3.8420982E0,8.539715E-1,3.0190808E-1,2.7563708E0,2.6930182E0,0E0,0E0,0E0,0E0,0E0,0E0,0E0,0E0,0E0,0E0,0E0,0E0,0E0,0E0,0E0,0E0],"parents":[2147483647,0,0,1,1,2,2,3,3,4,4,5,5,6,6,7,7,8,8,9,9,10,10,11,11,12,12,13,13,14,14],"right_children":[2,4,6,8,10,12,14,16,18,20,22,24,26,28,30,-1,-1,-1,-1,-1,-1,-1,-1,-1,-1,-1,-1,-1,-1,-1,-1],"split_conditions":[1.5634247E0,1E0,2.1938403E0,1.0813248E0,1E0,1E0,1.4665685E0,1E0,-2.625887E-1,4.083886E-1,-1.3605027E-1,1E0,1E0,2.3423798E0,1.6980453E0,-5.607506E-3,-1.099044E-1,2.2671674E-1,6.2507773E-3,-3.910617E-2,1.2943326E-1,9.409194E-2,3.5138822E-1,-1.06767215E-1,-4.23946E-1,2.4075818E-1,-1.8945156E-3,-9.7700916E-2,2.8236538E-1,-3.986177E-1,1.2073882E-1],"split_indices":[38,32,40,39,18,33,39,34,38,39,40,4,0,40,39,0,0,0,0,0,0,0,0,0,0,0,0,0,0,0,0],"split_type":[0,0,0,0,0,0,0,0,0,0,0,0,0,0,0,0,0,0,0,0,0,0,0,0,0,0,0,0,0,0,0],"sum_hessian":[1.1196454E3,1.0869388E3,3.2706577E1,8.781758E2,2.0876303E2,1.5131203E1,1.7575375E1,6.86071E2,1.9210478E2,1.5902145E2,4.9741577E1,1.2738351E1,2.392851E0,1.0544186E1,7.031189E0,5.607522E2,1.2531877E2,3.6587837E1,1.5551694E2,9.9682205E1,5.933924E1,3.7867302E1,1.1874274E1,2.4787107E0,1.0259641E1,1.0515873E0,1.3412638E0,6.0407667E0,4.5034194E0,5.4226E0,1.6085892E0],"tree_param":{"num_deleted":"0","num_feature":"41","num_nodes":"31","size_leaf_vector":"1"}},{"base_weights":[-1.8385589E-3,-6.603756E-1,4.004875E-3,-3.3440238E-1,-3.5494056E-1,1.8882464E-1,-1.928855E-2,2.8803399E-2,-2.3307374E-1,5.6519836E-2,4.776602E-1,1.3582404E-3,-2.170784E-1,2.3567718E-2,-6.448825E-3,3.678651E-2,-5.734021E-1,2.202847E-1,-1.5431274E-1,7.062413E-2,-1.8325886E-2,1.51600735E-2,-1.8817967E-1],"categories":[],"categories_nodes":[],"categories_segments":[],"categories_sizes":[],"default_left":[0,0,0,0,0,0,0,0,0,0,0,0,0,0,0,0,0,0,0,0,0,0,0],"id":12,"left_children":[1,3,5,7,-1,9,11,13,-1,15,17,19,21,-1,-1,-1,-1,-1,-1,-1,-1,-1,-1],"loss_changes":[4.260459E0,4.237442E-1,4.7294583E0,5.219516E-1,0E0,4.671756E0,3.985076E0,5.3165397E-3,0E0,4.645698E0,2.6404972E0,7.318588E0,5.976708E0,0E0,0E0,0E0,0E0,0E0,0E0,0E0,0E0,0E0,0E0],"parents":[2147483647,0,0,1,1,2,2,3,3,5,5,6,6,7,7,9,9,10,10,11,11,12,12],"right_children":[2,4,6,8,-1,10,12,14,-1,16,18,20,22,-1,-1,-1,-1,-1,-1,-1,-1,-1,-1],"split_conditions":[-1.5079089E0,-1.2364625E0,-1.2364625E0,-1.5145226E0,-3.5494056E-1,1E0,1E0,1E0,-2.3307374E-1,-1.4715582E-1,1E0,-3.0918962E-1,1E0,2.3567718E-2,-6.448825E-3,3.678651E-2,-5.734021E-1,2.202847E-1,-1.5431274E-1,7.062413E-2,-1.8325886E-2,1.51600735E-2,-1.8817967E-1],"split_indices":[39,38,38,39,0,7,8,0,0,39,16,39,24,0,0,0,0,0,0,0,0,0,0],"split_type":[0,0,0,0,0,0,0,0,0,0,0,0,0,0,0,0,0,0,0,0,0,0,0],"sum_hessian":[1.1054667E3,8.737749E0,1.0967289E3,4.601936E0,4.1358137E0,1.2195788E2,9.7477106E2,2.2274466E0,2.3744893E0,8.446383E1,3.7494045E1,8.8353424E2,9.12368E1,1.1470373E0,1.0804093E0,8.341767E1,1.0461574E0,3.4903244E1,2.5908012E0,1.8684442E2,6.966898E2,4.5897984E1,4.533882E1],"tree_param":{"num_deleted":"0","num_feature":"41","num_nodes":"23","size_leaf_vector":"1"}},{"base_weights":[-2.1859796E-3,5.185152E-3,-4.6760237E-1,-4.5472167E-2,7.712351E-2,-6.8009114E-1,2.7599972E-1,-2.4987726E-2,-3.493798E-1,1.8419147E-1,-5.9594486E-2,-3.791753E-1,-4.3156573E-1,2.9286197E-1,-2.3529635E-1,-6.1220257E-3,-5.3101534E-1,-3.824583E-1,7.183996E-3,-2.6459142E-3,1.3793063E-1,-1.8054888E-1,6.942831E-3,-2.800682E-1,1.940006E-1],"categories":[],"categories_nodes":[],"categories_segments":[],"categories_sizes":[],"default_left":[0,0,0,0,0,0,0,0,0,0,0,0,0,0,0,0,0,0,0,0,0,0,0,0,0],"id":13,"left_children":[1,3,5,7,9,11,13,15,17,19,21,23,-1,-1,-1,-1,-1,-1,-1,-1,-1,-1,-1,-1,-1],"loss_changes":[3.7650018E0,3.9415972E0,2.8912451E0,3.9427948E0,6.5527534E0,1.2226138E0,2.2102408E0,7.493239E0,8.93392E0,7.691534E0,5.9478436E0,2.916924E0,0E0,0E0,0E0,0E0,0E0,0E0,0E0,0E0,0E0,0E0,0E0,0E0,0E0],"parents":[2147483647,0,0,1,1,2,2,3,3,4,4,5,5,6,6,7,7,8,8,9,9,10,10,11,11],"right_children":[2,4,6,8,10,12,14,16,18,20,22,24,-1,-1,-1,-1,-1,-1,-1,-1,-1,-1,-1,-1,-1],"split_conditions":[1.6040027E0,1E0,2.4915955E0,9.9533165E-1,1E0,1.3045347E0,1E0,1.1345195E0,1E0,1E0,-4.24901E-1,1.2615461E0,-4.3156573E-1,2.9286197E-1,-2.3529635E-1,-6.1220257E-3,-5.3101534E-1,-3.824583E-1,7.183996E-3,-2.6459142E-3,1.3793063E-1,-1.8054888E-1,6.942831E-3,-2.800682E-1,1.940006E-1],"split_indices":[38,20,40,38,12,39,22,40,12,6,38,39,0,0,0,0,0,0,0,0,0,0,0,0,0],"split_type":[0,0,0,0,0,0,0,0,0,0,0,0,0,0,0,0,0,0,0,0,0,0,0,0,0],"sum_hessian":[1.095755E3,1.0796447E3,1.6110245E1,6.337445E2,4.459002E2,1.2596211E1,3.5140333E0,5.947392E2,3.9005283E1,2.498713E2,1.9602892E2,8.291176E0,4.3050356E0,2.4000804E0,1.1139529E0,5.9135504E2,3.3841572E0,1.4104616E1,2.490067E1,1.14648224E2,1.3522308E2,3.1383387E1,1.6464554E2,6.1839533E0,2.1072223E0],"tree_param":{"num_deleted":"0","num_feature":"41","num_nodes":"25","size_leaf_vector":"1"}},{"base_weights":[-3.179416E-3,3.0960197E-2,-9.880682E-2,-1.3498823E-2,2.920081E-1,-3.3358255E-1,1.20665304E-1,3.205623E-2,-3.2787094E-1,5.891728E-1,1.2552907E-1,-8.498498E-1,-2.0913352E-1,-4.898211E-1,2.429593E-1,-1.5880431E-3,1.4851609E-1,-7.92973E-2,-4.0308443E-1,3.585697E-1,-1.8040329E-1,1.4873002E-1,-7.2119094E-2,-6.8773526E-1,-8.423092E-2,-3.4879614E-2,-2.8779125E-1,-3.6340106E-1,1.2848577E-1,-3.5992715E-1,1.12818E-1],"categories":[],"categories_nodes":[],"categories_segments":[],"categories_sizes":[],"default_left":[0,0,0,0,0,0,1,0,0,0,0,0,0,0,0,0,0,0,0,0,0,0,0,0,0,0,0,0,0,0,0],"id":14,"left_children":[1,3,5,7,9,11,13,15,17,19,21,23,25,27,29,-1,-1,-1,-1,-1,-1,-1,-1,-1,-1,-1,-1,-1,-1,-1,-1],"loss_changes":[3.557274E0,9.323875E0,1.4810616E1,9.8510065E0,5.709564E0,8.737719E0,1.123498E1,7.347357E0,7.472207E0,1.3733482E1,5.8066845E0,1.4437931E1,6.977671E0,8.842054E0,5.8241305E0,0E0,0E0,0E0,0E0,0E0,0E0,0E0,0E0,0E0,0E0,0E0,0E0,0E0,0E0,0E0,0E0],"parents":[2147483647,0,0,1,1,2,2,3,3,4,4,5,5,6,6,7,7,8,8,9,9,10,10,11,11,12,12,13,13,14,14],"right_children":[2,4,6,8,10,12,14,16,18,20,22,24,26,28,30,-1,-1,-1,-1,-1,-1,-1,-1,-1,-1,-1,-1,-1,-1,-1,-1],"split_conditions":[4.4545716E-1,-1.3401493E-2,1E0,-3.2332793E-1,1.11253984E-1,1E0,7.353602E-1,8.0685943E-1,1E0,1E0,1E0,1E0,1.9033046E0,9.9865454E-1,2.3643437E-1,-1.5880431E-3,1.4851609E-1,-7.92973E-2,-4.0308443E-1,3.585697E-1,-1.8040329E-1,1.4873002E-1,-7.2119094E-2,-6.8773526E-1,-8.423092E-2,-3.4879614E-2,-2.8779125E-1,-3.6340106E-1,1.2848577E-1,-3.5992715E-1,1.12818E-1],"split_indices":[40,40,0,40,40,21,40,39,22,10,14,10,40,39,39,0,0,0,0,0,0,0,0,0,0,0,0,0,0,0,0],"split_type":[0,0,0,0,0,0,0,0,0,0,0,0,0,0,0,0,0,0,0,0,0,0,0,0,0,0,0,0,0,0,0],"sum_hessian":[1.0876862E3,8.020318E2,2.856544E2,6.861261E2,1.15905716E2,1.3776414E2,1.4789026E2,6.000692E2,8.605684E1,4.070621E1,7.519951E1,2.5626339E1,1.121378E2,2.417991E1,1.2371034E2,5.433538E2,5.6715385E1,7.336052E1,1.2696324E1,3.153077E1,9.175441E0,4.1534286E1,3.3665222E1,1.0142197E1,1.5484143E1,9.1457184E1,2.0680618E1,1.5868122E1,8.3117895E0,3.362973E0,1.20347374E2],"tree_param":{"num_deleted":"0","num_feature":"41","num_nodes":"31","size_leaf_vector":"1"}},{"base_weights":[-4.049128E-3,1.3704538E-2,-1.5428287E-1,-5.4607637E-2,1.3272582E-1,-8.655448E-2,-3.688107E-1,2.0230742E-2,-2.0511906E-1,1.2473508E-1,4.5214897E-1,1.4961316E-1,-2.1791741E-1,-2.7227886E-3,4.7602302E-1,-2.3634468E-1,-5.6037452E-2,5.419155E-2,-4.1253382E-1,-9.1920875E-2,2.11181E-1,2.1975604E-1,-1.3824682E-1],"categories":[],"categories_nodes":[],"categories_segments":[],"categories_sizes":[],"default_left":[0,0,0,0,0,0,0,0,0,0,0,0,0,0,0,0,0,0,0,0,0,0,0],"id":15,"left_children":[1,3,5,7,9,11,-1,13,15,17,-1,19,21,-1,-1,-1,-1,-1,-1,-1,-1,-1,-1],"loss_changes":[2.8684976E0,7.829054E0,5.830214E0,6.896868E0,2.6579285E0,3.3070982E0,0E0,1.2963973E1,5.0168285E0,4.479862E0,0E0,5.621791E0,6.875411E0,0E0,0E0,0E0,0E0,0E0,0E0,0E0,0E0,0E0,0E0],"parents":[2147483647,0,0,1,1,2,2,3,3,4,4,5,5,7,7,8,8,9,9,11,11,12,12],"right_children":[2,4,6,8,10,12,-1,14,16,18,-1,20,22,-1,-1,-1,-1,-1,-1,-1,-1,-1,-1],"split_conditions":[1E0,1E0,9.1417545E-1,-2.625887E-1,1.6980453E0,1E0,-3.688107E-1,1E0,-1.5755688E-1,1.6434829E0,4.5214897E-1,-3.339907E-1,-9.861286E-1,-2.7227886E-3,4.7602302E-1,-2.3634468E-1,-5.6037452E-2,5.419155E-2,-4.1253382E-1,-9.1920875E-2,2.11181E-1,2.1975604E-1,-1.3824682E-1],"split_indices":[3,2,38,38,39,2,0,26,40,39,0,39,40,0,0,0,0,0,0,0,0,0,0],"split_type":[0,0,0,0,0,0,0,0,0,0,0,0,0,0,0,0,0,0,0,0,0,0,0],"sum_hessian":[1.073679E3,9.6102045E2,1.126585E2,6.109229E2,3.5009753E2,1.0454826E2,8.110238E0,4.0861432E2,2.0230858E2,3.4843176E2,1.6657659E0,3.7318027E1,6.723023E1,4.0035526E2,8.259061E0,2.8017437E1,1.7429115E2,3.4609818E2,2.3336077E0,1.8828539E1,1.8489487E1,9.121254E0,5.8108982E1],"tree_param":{"num_deleted":"0","num_feature":"41","num_nodes":"23","size_leaf_vector":"1"}},{"base_weights":[-3.4369174E-3,1.4472336E-1,-2.1627998E-2,3.1718656E-1,-2.660672E-1,-1.5621471E-2,-4.524645E-1,1.9544683E-1,1.1350347E0,1.44593185E-2,-8.5501814E-1,-3.518013E-2,2.6752058E-1,-7.090064E-1,1.8264319E-1,-3.0011082E-2,1.7973308E-1,-1.5756007E-2,6.6174096E-1,-8.5345805E-2,5.5843425E-1,-4.322734E-1,-1.19706884E-1,-3.76764E-3,-2.0801257E-1,-3.6553553E-1,1.5124594E-1,-3.3884308E-1,-4.455297E-2,2.4398623E-1,-4.7691632E-2],"categories":[],"categories_nodes":[],"categories_segments":[],"categories_sizes":[],"default_left":[0,0,0,0,0,0,0,0,0,0,1,0,0,0,0,0,0,0,0,0,0,0,0,0,0,0,0,0,0,0,0],"id":16,"left_children":[1,3,5,7,9,11,13,15,17,19,21,23,25,27,29,-1,-1,-1,-1,-1,-1,-1,-1,-1,-1,-1,-1,-1,-1,-1,-1],"loss_changes":[2.8657622E0,8.322174E0,2.443212E0,7.9774017E0,5.782694E0,5.186575E0,2.244879E0,5.0389743E0,6.4459105E0,8.05401E0,1.0918865E0,1.0928365E1,8.25275E0,6.8579435E-1,6.571652E-1,0E0,0E0,0E0,0E0,0E0,0E0,0E0,0E0,0E0,0E0,0E0,0E0,0E0,0E0,0E0,0E0],"parents":[2147483647,0,0,1,1,2,2,3,3,4,4,5,5,6,6,7,7,8,8,9,9,10,10,11,11,12,12,13,13,14,14],"right_children":[2,4,6,8,10,12,14,16,18,20,22,24,26,28,30,-1,-1,-1,-1,-1,-1,-1,-1,-1,-1,-1,-1,-1,-1,-1,-1],"split_conditions":[1E0,1E0,1.6040027E0,1E0,-3.6802068E-1,1.3605343E0,2.4915955E0,1E0,1E0,-5.9698332E-2,3.4996432E-1,1.1170658E0,1.2039253E0,1E0,1.5690796E0,-3.0011082E-2,1.7973308E-1,-1.5756007E-2,6.6174096E-1,-8.5345805E-2,5.5843425E-1,-4.322734E-1,-1.19706884E-1,-3.76764E-3,-2.0801257E-1,-3.6553553E-1,1.5124594E-1,-3.3884308E-1,-4.455297E-2,2.4398623E-1,-4.7691632E-2],"split_indices":[4,16,38,27,40,38,40,0,14,38,40,38,40,1,39,0,0,0,0,0,0,0,0,0,0,0,0,0,0,0,0],"split_type":[0,0,0,0,0,0,0,0,0,0,0,0,0,0,0,0,0,0,0,0,0,0,0,0,0,0,0,0,0,0,0],"sum_hessian":[1.0611241E3,1.1527686E2,9.458473E2,8.135095E1,3.3925903E1,9.338641E2,1.198325E1,7.188899E1,9.461965E0,2.3640848E1,1.0285057E1,8.7434265E2,5.9521385E1,8.452597E0,3.5306528E0,3.5148453E1,3.674054E1,3.184483E0,6.277482E0,2.1020271E1,2.6205764E0,6.643063E0,3.641994E0,8.31199E2,4.314369E1,4.473443E0,5.5047943E1,6.526881E0,1.9257156E0,1.0391091E0,2.4915438E0],"tree_param":{"num_deleted":"0","num_feature":"41","num_nodes":"31","size_leaf_vector":"1"}},{"base_weights":[-3.4220088E-3,-5.13028E-1,6.199046E-4,-2.3145913E-1,-3.1548697E-1,2.9858994E-1,-6.9705304E-3,1.6407792E-2,-1.6069934E-1,-2.2653645E-1,4.9020487E-1,-2.3912525E-1,5.608132E-3,1.1999151E-2,-2.148642E-3,-3.859422E-1,9.976543E-2,1.4028059E-1,2.9044476E-1,-3.951017E-1,-2.2169966E-2,1.5115646E-1,-5.743057E-3],"categories":[],"categories_nodes":[],"categories_segments":[],"categories_sizes":[],"default_left":[0,0,0,0,0,0,1,0,0,0,0,0,0,0,0,0,0,0,0,0,0,0,0],"id":17,"left_children":[1,3,5,7,-1,9,11,13,-1,15,17,19,21,-1,-1,-1,-1,-1,-1,-1,-1,-1,-1],"loss_changes":[2.181604E0,4.6440816E-1,2.3806295E0,2.4037072E-1,0E0,2.7420104E0,2.9989412E0,1.1131066E-3,0E0,2.9373534E0,3.8619995E-1,7.2041097E0,7.250468E0,0E0,0E0,0E0,0E0,0E0,0E0,0E0,0E0,0E0,0E0],"parents":[2147483647,0,0,1,1,2,2,3,3,5,5,6,6,7,7,9,9,10,10,11,11,12,12],"right_children":[2,4,6,8,-1,10,12,14,-1,16,18,20,22,-1,-1,-1,-1,-1,-1,-1,-1,-1,-1],"split_conditions":[-1.5079089E0,-1.2364625E0,-9.9672925E-1,-1.5145226E0,-3.1548697E-1,1E0,-9.8379475E-1,1E0,-1.6069934E-1,-1.4913749E0,1E0,-1.4698806E0,-9.70424E-1,1.1999151E-2,-2.148642E-3,-3.859422E-1,9.976543E-2,1.4028059E-1,2.9044476E-1,-3.951017E-1,-2.2169966E-2,1.5115646E-1,-5.743057E-3],"split_indices":[39,38,40,39,0,24,40,0,0,39,21,39,40,0,0,0,0,0,0,0,0,0,0],"split_type":[0,0,0,0,0,0,0,0,0,0,0,0,0,0,0,0,0,0,0,0,0,0,0],"sum_hessian":[1.0579879E3,7.33442E0,1.0506536E3,4.5385966E0,2.795824E0,2.5146963E1,1.0255066E3,2.2162905E0,2.3223062E0,6.674112E0,1.847285E1,5.1782696E1,9.737239E2,1.1323602E0,1.0839303E0,2.2133796E0,4.4607325E0,1.3170876E1,5.301975E0,9.340525E0,4.2442173E1,4.8650826E1,9.2507306E2],"tree_param":{"num_deleted":"0","num_feature":"41","num_nodes":"23","size_leaf_vector":"1"}},{"base_weights":[-2.4881335E-3,-2.3332492E-2,7.967751E-2,-3.0869871E-2,4.6704373E-1,6.700612E-1,1.8785205E-2,-2.7288191E-2,-4.0232745E-1,4.7682008E-1,2.4184287E-3,8.299948E-1,-3.3035618E-1,-4.5374174E-2,3.9026725E-1,-7.7509545E-3,-1.5318209E-1,-1.7286617E-1,1.5691344E-1,1.6089757E-1,4.8342296E-1,4.0574623E-3,-2.8306568E-1,6.7445487E-1,9.242723E-2],"categories":[],"categories_nodes":[],"categories_segments":[],"categories_sizes":[],"default_left":[0,1,0,0,0,0,0,0,0,0,0,0,0,0,0,0,0,0,0,0,0,0,0,0,0],"id":18,"left_children":[1,3,5,7,9,11,13,15,-1,-1,17,19,-1,21,23,-1,-1,-1,-1,-1,-1,-1,-1,-1,-1],"loss_changes":[1.8073444E0,3.1252398E0,7.6642427E0,2.8703008E0,4.309772E0,5.455415E0,4.655963E0,2.3217602E0,0E0,0E0,1.661262E0,2.5111885E0,0E0,6.14175E0,5.5446286E0,0E0,0E0,0E0,0E0,0E0,0E0,0E0,0E0,0E0,0E0],"parents":[2147483647,0,0,1,1,2,2,3,3,4,4,5,5,6,6,7,7,10,10,11,11,13,13,14,14],"right_children":[2,4,6,8,10,12,14,16,-1,-1,18,20,-1,22,24,-1,-1,-1,-1,-1,-1,-1,-1,-1,-1],"split_conditions":[1E0,2.3423798E0,-6.944332E-1,1.6434829E0,2.3953393E0,-4.060826E-1,1E0,1.5228466E0,-4.0232745E-1,4.7682008E-1,1.6732442E0,-1.1524267E0,-3.3035618E-1,1.3690175E0,9.092522E-2,-7.7509545E-3,-1.5318209E-1,-1.7286617E-1,1.5691344E-1,1.6089757E-1,4.8342296E-1,4.0574623E-3,-2.8306568E-1,6.7445487E-1,9.242723E-2],"split_indices":[1,40,39,39,40,40,27,38,0,0,39,39,0,39,40,0,0,0,0,0,0,0,0,0,0],"split_type":[0,0,0,0,0,0,0,0,0,0,0,0,0,0,0,0,0,0,0,0,0,0,0,0,0],"sum_hessian":[1.0531809E3,8.40638E2,2.1254294E2,8.288354E2,1.1802653E1,1.8936764E1,1.9360619E2,8.268258E2,2.0095305E0,3.998201E0,7.804453E0,1.7509933E1,1.4268311E0,1.6584128E2,2.7764908E1,8.098671E2,1.6958715E1,3.6392598E0,4.165193E0,9.189244E0,8.320689E0,1.5392303E2,1.1918232E1,1.9883682E0,2.577654E1],"tree_param":{"num_deleted":"0","num_feature":"41","num_nodes":"25","size_leaf_vector":"1"}},{"base_weights":[-1.020808E-3,-3.7613206E-2,4.9274266E-2,-4.768945E-3,-3.5443395E-1,-1.7742103E-1,9.657692E-2,-4.013232E-2,3.1992602E-1,-5.044718E-1,4.1825944E-1,7.885855E-2,-6.533429E-1,2.8345188E-1,2.4268523E-2,-4.68356E-3,-1.354702E-1,3.1294674E-1,-6.6524753E-3,-2.4694346E-2,-3.381877E-1,3.6705208E-1,-4.3735805E-1,-6.4816885E-2,3.6030537E-1,-2.2942515E-2,-4.3522406E-1,1.2966423E-1,-2.6264295E-1,-1.9601533E-1,2.910882E-2],"categories":[],"categories_nodes":[],"categories_segments":[],"categories_sizes":[],"default_left":[0,0,0,0,0,0,0,0,0,0,0,0,0,0,0,0,0,0,0,0,0,0,0,0,0,0,0,0,0,0,0],"id":19,"left_children":[1,3,5,7,9,11,13,15,17,19,21,23,25,27,29,-1,-1,-1,-1,-1,-1,-1,-1,-1,-1,-1,-1,-1,-1,-1,-1],"loss_changes":[1.9367299E0,6.3367577E0,4.7696466E0,6.3617234E0,6.842648E0,9.426691E0,4.9567165E0,4.234684E0,8.482447E0,7.2479544E0,8.437291E0,1.0214865E1,6.93587E0,4.131016E0,6.6698184E0,0E0,0E0,0E0,0E0,0E0,0E0,0E0,0E0,0E0,0E0,0E0,0E0,0E0,0E0,0E0,0E0],"parents":[2147483647,0,0,1,1,2,2,3,3,4,4,5,5,6,6,7,7,8,8,9,9,10,10,11,11,12,12,13,13,14,14],"right_children":[2,4,6,8,10,12,14,16,18,20,22,24,26,28,30,-1,-1,-1,-1,-1,-1,-1,-1,-1,-1,-1,-1,-1,-1,-1,-1],"split_conditions":[1E0,4.4545716E-1,3.2075807E-1,-7.5054396E-4,1.3094949E0,-4.962901E-3,6.861608E-1,-2.999455E-1,1.11253984E-1,6.861608E-1,1.0764878E0,1E0,-5.095368E-1,1.3640469E0,8.1347305E-1,-4.68356E-3,-1.354702E-1,3.1294674E-1,-6.6524753E-3,-2.4694346E-2,-3.381877E-1,3.6705208E-1,-4.3735805E-1,-6.4816885E-2,3.6030537E-1,-2.2942515E-2,-4.3522406E-1,1.2966423E-1,-2.6264295E-1,-1.9601533E-1,2.910882E-2],"split_indices":[6,40,39,40,39,39,39,40,40,39,38,22,40,40,39,0,0,0,0,0,0,0,0,0,0,0,0,0,0,0,0],"split_type":[0,0,0,0,0,0,0,0,0,0,0,0,0,0,0,0,0,0,0,0,0,0,0,0,0,0,0,0,0,0,0],"sum_hessian":[1.050325E3,6.0812976E2,4.4219525E2,5.519274E2,5.620231E1,7.5865135E1,3.663301E2,4.9850983E2,5.341761E1,4.7354393E1,8.8479185E0,4.9853687E1,2.6011452E1,1.0138615E2,2.6494397E2,4.5612292E2,4.238691E1,2.1942823E1,3.1474785E1,2.1117464E1,2.6236929E1,6.946218E0,1.9017004E0,3.9174473E1,1.0679214E1,1.14481945E1,1.4563256E1,9.780589E1,3.5802505E0,2.2048601E1,2.4289537E2],"tree_param":{"num_deleted":"0","num_feature":"41","num_nodes":"31","size_leaf_vector":"1"}},{"base_weights":[-1.8284324E-3,1.1967482E-2,-1.0674831E-1,1.7837565E-2,-2.617115E-1,5.192879E-1,-1.9052064E-1,4.403258E-3,1.6568781E-1,-3.746699E-1,-4.9078245E-2,8.988996E-1,-4.3543336E-1,2.6227288E-2,-5.175585E-1,4.963755E-3,-2.682246E-1,-2.0347562E-1,1.0966735E-1,3.7060162E-1,-8.0500275E-2,-2.578125E-1,4.5428783E-1,4.0205166E-2,-4.636124E-1,-1.0851891E-1,-5.290613E-1],"categories":[],"categories_nodes":[],"categories_segments":[],"categories_sizes":[],"default_left":[0,0,0,0,0,0,0,0,0,0,0,0,0,0,0,0,0,0,0,0,0,0,0,0,0,0,0],"id":20,"left_children":[1,3,5,7,9,11,13,15,17,-1,19,21,-1,23,25,-1,-1,-1,-1,-1,-1,-1,-1,-1,-1,-1,-1],"loss_changes":[1.5120822E0,1.4880679E0,6.4654655E0,1.7966621E0,2.7459102E0,9.887221E0,7.654949E0,4.496558E0,5.6516695E0,0E0,2.5392144E0,5.2481565E0,0E0,5.9085946E0,8.169731E0,0E0,0E0,0E0,0E0,0E0,0E0,0E0,0E0,0E0,0E0,0E0,0E0],"parents":[2147483647,0,0,1,1,2,2,3,3,4,4,5,5,6,6,7,7,8,8,10,10,11,11,13,13,14,14],"right_children":[2,4,6,8,10,12,14,16,18,-1,20,22,-1,24,26,-1,-1,-1,-1,-1,-1,-1,-1,-1,-1,-1,-1],"split_conditions":[1E0,1E0,-2.625887E-1,1.3199562E0,1.4797957E0,1E0,1E0,1.8188268E0,2.1163328E-1,-3.746699E-1,3.866605E-1,-7.2724223E-1,-4.3543336E-1,1.159035E0,1E0,4.963755E-3,-2.682246E-1,-2.0347562E-1,1.0966735E-1,3.7060162E-1,-8.0500275E-2,-2.578125E-1,4.5428783E-1,4.0205166E-2,-4.636124E-1,-1.0851891E-1,-5.290613E-1],"split_indices":[26,37,38,38,39,32,14,40,39,0,38,40,0,39,22,0,0,0,0,0,0,0,0,0,0,0,0],"split_type":[0,0,0,0,0,0,0,0,0,0,0,0,0,0,0,0,0,0,0,0,0,0,0,0,0,0,0],"sum_hessian":[1.0427585E3,9.2236304E2,1.2039557E2,9.0391003E2,1.8452953E1,1.359564E1,1.0679993E2,8.2956226E2,7.43478E1,3.60487E0,1.48480835E1,1.1355574E1,2.2400663E0,6.478365E1,4.201627E1,8.208078E2,8.754439E0,9.791161E0,6.455664E1,1.3168976E0,1.3531185E1,1.2815691E0,1.0074004E1,6.1824055E1,2.9596019E0,3.319853E1,8.817743E0],"tree_param":{"num_deleted":"0","num_feature":"41","num_nodes":"27","size_leaf_vector":"1"}},{"base_weights":[-3.2737625E-3,9.377545E-3,-1.1485019E-1,-3.66571E-2,9.039719E-2,-6.8873845E-2,-3.42998E-1,2.1843487E-2,-1.2466536E-1,1.2507717E-1,-1.3572855E-1,-1.636611E-1,2.4924684E-1,-1.5413771E-2,1.4360161E-1,-1.7420705E-1,-1.6961021E-2,3.7242245E-2,2.2474177E-1,-4.417675E-1,-1.7821869E-2,-1.053012E-1,5.554496E-2,2.9206827E-1,-1.0831219E-1],"categories":[],"categories_nodes":[],"categories_segments":[],"categories_sizes":[],"default_left":[0,0,0,0,0,0,0,0,0,0,0,0,0,0,0,0,0,0,0,0,0,0,0,0,0],"id":21,"left_children":[1,3,5,7,9,11,-1,13,15,17,19,21,23,-1,-1,-1,-1,-1,-1,-1,-1,-1,-1,-1,-1],"loss_changes":[1.4689045E0,3.4901044E0,3.5592785E0,3.0756583E0,2.6755264E0,3.0827584E0,0E0,7.3298335E0,6.0796437E0,4.059574E0,3.974525E0,2.3964598E0,6.0886197E0,0E0,0E0,0E0,0E0,0E0,0E0,0E0,0E0,0E0,0E0,0E0,0E0],"parents":[2147483647,0,0,1,1,2,2,3,3,4,4,5,5,7,7,8,8,9,9,10,10,11,11,12,12],"right_children":[2,4,6,8,10,12,-1,14,16,18,20,22,24,-1,-1,-1,-1,-1,-1,-1,-1,-1,-1,-1,-1],"split_conditions":[1E0,1E0,9.1417545E-1,-4.7646987E-1,1.7598908E0,1E0,-3.42998E-1,-7.0894754E-1,-1.972765E-1,1.3199562E0,1E0,1E0,1E0,-1.5413771E-2,1.4360161E-1,-1.7420705E-1,-1.6961021E-2,3.7242245E-2,2.2474177E-1,-4.417675E-1,-1.7821869E-2,-1.053012E-1,5.554496E-2,2.9206827E-1,-1.0831219E-1],"split_indices":[3,2,38,40,40,14,0,38,40,38,6,10,18,0,0,0,0,0,0,0,0,0,0,0,0],"split_type":[0,0,0,0,0,0,0,0,0,0,0,0,0,0,0,0,0,0,0,0,0,0,0,0,0],"sum_hessian":[1.0388416E3,9.3386896E2,1.04972565E2,5.9585626E2,3.380127E2,9.988174E1,5.090831E0,3.583841E2,2.374722E2,2.9345377E2,4.4558945E1,7.7326935E1,2.2554802E1,3.047041E2,5.367999E1,4.8794556E1,1.8867764E2,2.7456882E2,1.8884941E1,2.8771305E0,4.1681812E1,5.8273037E1,1.9053896E1,1.1508024E1,1.1046779E1],"tree_param":{"num_deleted":"0","num_feature":"41","num_nodes":"25","size_leaf_vector":"1"}},{"base_weights":[-3.262232E-3,-3.528444E-2,4.200282E-2,-2.6578324E-2,-5.916796E-1,-9.955222E-2,8.331067E-2,-7.121777E-2,4.4634532E-2,-7.8915346E-1,6.948193E-2,8.0827945E-1,-1.7687199E-1,-5.1919732E-2,1.7102973E-1,5.7997915E-4,-1.4604129E-1,-3.1706866E-2,1.0005198E-1,-4.3593165E-1,5.6237232E-2,7.227259E-3,5.6061864E-1,-1.2026242E-1,1.7534892E-1,8.386107E-2,-9.265696E-2,2.5775385E-1,3.395257E-2],"categories":[],"categories_nodes":[],"categories_segments":[],"categories_sizes":[],"default_left":[0,0,0,0,0,0,0,0,0,0,0,0,0,0,0,0,0,0,0,0,0,0,0,0,0,0,0,0,0],"id":22,"left_children":[1,3,5,7,9,11,13,15,17,19,-1,21,23,25,27,-1,-1,-1,-1,-1,-1,-1,-1,-1,-1,-1,-1,-1,-1],"loss_changes":[1.5114583E0,2.942324E0,2.534776E0,1.9178202E0,1.551924E0,7.026056E0,3.9829237E0,7.915244E0,5.944339E0,2.2838273E0,0E0,3.6668663E0,7.0760884E0,6.28113E0,8.2412E0,0E0,0E0,0E0,0E0,0E0,0E0,0E0,0E0,0E0,0E0,0E0,0E0,0E0,0E0],"parents":[2147483647,0,0,1,1,2,2,3,3,4,4,5,5,6,6,7,7,8,8,9,9,11,11,12,12,13,13,14,14],"right_children":[2,4,6,8,10,12,14,16,18,20,-1,22,24,26,28,-1,-1,-1,-1,-1,-1,-1,-1,-1,-1,-1,-1,-1,-1],"split_conditions":[1E0,1.4416904E0,1E0,1E0,1E0,-5.0759834E-1,1E0,3.4225237E-1,4.083886E-1,1E0,6.948193E-2,1E0,1E0,3.3067852E-1,-3.3467016E-1,5.7997915E-4,-1.4604129E-1,-3.1706866E-2,1.0005198E-1,-4.3593165E-1,5.6237232E-2,7.227259E-3,5.6061864E-1,-1.2026242E-1,1.7534892E-1,8.386107E-2,-9.265696E-2,2.5775385E-1,3.395257E-2],"split_indices":[20,38,21,23,23,39,6,39,39,35,0,2,27,39,40,0,0,0,0,0,0,0,0,0,0,0,0,0,0],"split_type":[0,0,0,0,0,0,0,0,0,0,0,0,0,0,0,0,0,0,0,0,0,0,0,0,0,0,0,0,0],"sum_hessian":[1.0407314E3,6.0965735E2,4.310742E2,6.012964E2,8.360936E0,9.7059074E1,3.340151E2,3.696088E2,2.316876E2,6.621495E0,1.7394418E0,6.8757205E0,9.018336E1,1.3157822E2,2.0243689E2,2.971331E2,7.2475685E1,1.4492224E2,8.6765366E1,4.8733106E0,1.7481841E0,3.390349E0,3.4853718E0,7.5503716E1,1.4679645E1,5.351897E1,7.805924E1,3.0172052E1,1.7226485E2],"tree_param":{"num_deleted":"0","num_feature":"41","num_nodes":"29","size_leaf_vector":"1"}},{"base_weights":[-7.735168E-4,5.811582E-3,-2.0141684E-1,-8.046339E-3,2.6168865E-1,-4.179875E-1,4.0556327E-2,3.3688182E-3,-3.251431E-1,-3.6824617E-1,3.8956118E-1,3.539071E-1,-6.156065E-1,2.634098E-1,-2.3081708E-1,-3.523089E-3,2.4898665E-1,-2.8308836E-1,1.8013608E-2,8.234119E-1,4.5611076E-2,-2.2590385E-1,3.2841793E-1,-3.9744037E-1,-1.01730205E-1,2.210614E-1,-1.160381E-1,-3.3786237E-1,2.2035114E-2],"categories":[],"categories_nodes":[],"categories_segments":[],"categories_sizes":[],"default_left":[0,0,0,0,0,0,0,0,0,0,0,0,0,0,0,0,0,0,0,0,0,0,0,0,0,0,0,0,0],"id":23,"left_children":[1,3,5,7,9,11,13,15,17,-1,19,21,23,25,27,-1,-1,-1,-1,-1,-1,-1,-1,-1,-1,-1,-1,-1,-1],"loss_changes":[1.3706535E0,3.5641139E0,1.7444562E0,3.4539254E0,8.1656275E0,2.8848975E0,1.0575081E0,6.9539967E0,4.727524E0,0E0,2.151726E1,2.2655761E0,1.6981244E0,1.6838905E0,1.4442859E0,0E0,0E0,0E0,0E0,0E0,0E0,0E0,0E0,0E0,0E0,0E0,0E0,0E0,0E0],"parents":[2147483647,0,0,1,1,2,2,3,3,4,4,5,5,6,6,7,7,8,8,10,10,11,11,12,12,13,13,14,14],"right_children":[2,4,6,8,10,12,14,16,18,-1,20,22,24,26,28,-1,-1,-1,-1,-1,-1,-1,-1,-1,-1,-1,-1,-1,-1],"split_conditions":[1.5228466E0,1.3199562E0,2.2467997E0,1.1170658E0,2.1163328E-1,-3.4887135E-1,1.6040027E0,1.0359097E0,1E0,-3.6824617E-1,1.3640469E0,1E0,9.457455E-1,2.3953393E0,2.3423798E0,-3.523089E-3,2.4898665E-1,-2.8308836E-1,1.8013608E-2,8.234119E-1,4.5611076E-2,-2.2590385E-1,3.2841793E-1,-3.9744037E-1,-1.01730205E-1,2.210614E-1,-1.160381E-1,-3.3786237E-1,2.2035114E-2],"split_indices":[38,38,40,38,39,39,38,38,23,0,40,23,39,40,40,0,0,0,0,0,0,0,0,0,0,0,0,0,0],"split_type":[0,0,0,0,0,0,0,0,0,0,0,0,0,0,0,0,0,0,0,0,0,0,0,0,0,0,0,0,0],"sum_hessian":[1.0355009E3,1.0035359E3,3.196494E1,9.52897E2,5.0638927E1,1.6484015E1,1.5480925E1,9.207406E2,3.2156338E1,4.3372674E0,4.6301662E1,3.198786E0,1.3285228E1,8.516483E0,6.9644413E0,9.039474E2,1.6793245E1,1.5364892E1,1.6791447E1,5.643945E0,4.0657715E1,1.0078274E0,2.1909587E0,5.6371155E0,7.648113E0,5.5945125E0,2.921971E0,1.5920273E0,5.372414E0],"tree_param":{"num_deleted":"0","num_feature":"41","num_nodes":"29","size_leaf_vector":"1"}},{"base_weights":[-2.0326541E-3,8.73231E-2,-1.4581846E-2,1.011173E-2,1.0389225E0,-5.2216405E-1,-7.3091956E-3,6.741662E-2,-4.162887E-1,1.3529812E0,5.685117E-1,-1.2876655E0,1.1464896E-1,7.511661E-1,-1.2415443E-2,-9.029513E-3,2.489963E-1,-9.150124E-2,-5.657573E-1,8.0081147E-1,2.679411E-1,-1.2491478E-1,3.7162378E-1,-6.1708444E-1,-1.7769065E-1,1.9644554E-1,-2.503642E-1,3.8217318E-1,4.026201E-2,2.3552517E-3,-4.198398E-2],"categories":[],"categories_nodes":[],"categories_segments":[],"categories_sizes":[],"default_left":[0,0,1,0,0,0,0,0,0,0,0,0,0,0,0,0,0,0,0,0,0,0,0,0,0,0,0,0,0,0,0],"id":24,"left_children":[1,3,5,7,9,11,13,15,17,19,21,23,25,27,29,-1,-1,-1,-1,-1,-1,-1,-1,-1,-1,-1,-1,-1,-1,-1,-1],"loss_changes":[1.1596081E0,9.346568E0,3.343007E0,2.9310164E0,6.4137363E-1,6.3837996E0,3.4750273E0,5.2884007E0,2.3370593E0,8.761492E-1,2.051734E0,5.8194923E-1,2.5103006E0,7.0113707E-1,1.5079216E0,0E0,0E0,0E0,0E0,0E0,0E0,0E0,0E0,0E0,0E0,0E0,0E0,0E0,0E0,0E0,0E0],"parents":[2147483647,0,0,1,1,2,2,3,3,4,4,5,5,6,6,7,7,8,8,9,9,10,10,11,11,12,12,13,13,14,14],"right_children":[2,4,6,8,10,12,14,16,18,20,22,24,26,28,30,-1,-1,-1,-1,-1,-1,-1,-1,-1,-1,-1,-1,-1,-1,-1,-1],"split_conditions":[-9.70424E-1,-9.7258335E-1,-9.660616E-1,-9.750263E-1,1E0,-6.382174E-1,-9.6475285E-1,-9.810246E-1,1E0,-1.4731874E0,-1.1524267E0,-1.1553063E0,-9.680465E-1,-1.1958845E0,1E0,-9.029513E-3,2.489963E-1,-9.150124E-2,-5.657573E-1,8.0081147E-1,2.679411E-1,-1.2491478E-1,3.7162378E-1,-6.1708444E-1,-1.7769065E-1,1.9644554E-1,-2.503642E-1,3.8217318E-1,4.026201E-2,2.3552517E-3,-4.198398E-2],"split_indices":[40,40,40,40,0,39,40,40,16,39,39,38,40,38,24,0,0,0,0,0,0,0,0,0,0,0,0,0,0,0,0],"split_type":[0,0,0,0,0,0,0,0,0,0,0,0,0,0,0,0,0,0,0,0,0,0,0,0,0,0,0,0,0,0,0],"sum_hessian":[1.0319894E3,1.26351654E2,9.056377E2,1.1780385E2,8.547803E0,1.1792634E1,8.9384503E2,1.045897E2,1.3214147E1,4.000677E0,4.5471263E0,4.891093E0,6.901541E0,5.000296E0,8.888447E2,9.082431E1,1.3765395E1,1.2158796E1,1.0553501E0,1.0614789E0,2.9391983E0,1.3595858E0,3.1875405E0,3.1189024E0,1.7721905E0,4.7988634E0,2.1026778E0,3.4486456E0,1.5516505E0,7.428577E2,1.45987E2],"tree_param":{"num_deleted":"0","num_feature":"41","num_nodes":"31","size_leaf_vector":"1"}},{"base_weights":[-8.992164E-5,1.860151E-1,-5.659965E-3,-1.9378208E-1,3.1433082E-1,-4.0296897E-1,9.173432E-4,-7.6562274E-1,4.1110212E-1,2.1307601E-1,5.96531E-1,-4.1978487E-1,4.0114442E-1,1.2820834E0,-8.096568E-3,-5.2145106E-1,5.620357E-2,-9.066023E-2,3.6843893E-1,1.1263231E-1,-1.5347342E-1,5.747062E-2,3.5992986E-1,6.4099663E-1,-3.6787774E-2,6.8665E-1,1.9529644E-1,-5.865666E-2,2.7025582E-3],"categories":[],"categories_nodes":[],"categories_segments":[],"categories_sizes":[],"default_left":[0,0,0,0,0,0,0,0,0,0,0,0,0,0,0,0,0,0,0,0,0,0,0,0,0,0,0,0,0],"id":25,"left_children":[1,3,5,7,9,11,13,15,17,19,21,-1,23,25,27,-1,-1,-1,-1,-1,-1,-1,-1,-1,-1,-1,-1,-1,-1],"loss_changes":[1.0694219E0,1.5219355E0,2.617918E0,3.1474705E0,5.24101E-1,8.902023E0,1.1400955E1,2.4057415E0,1.7148077E0,8.5729593E-1,6.209463E-1,0E0,4.883187E0,1.5411816E0,2.0185518E0,0E0,0E0,0E0,0E0,0E0,0E0,0E0,0E0,0E0,0E0,0E0,0E0,0E0,0E0],"parents":[2147483647,0,0,1,1,2,2,3,3,4,4,5,5,6,6,7,7,8,8,9,9,10,10,12,12,13,13,14,14],"right_children":[2,4,6,8,10,12,14,16,18,20,22,-1,24,26,28,-1,-1,-1,-1,-1,-1,-1,-1,-1,-1,-1,-1,-1,-1],"split_conditions":[-9.9672925E-1,1E0,-1.4946817E0,1E0,-1.4831079E0,-8.5660905E-1,-1.4913749E0,1E0,1E0,-1.4847612E0,1E0,-4.1978487E-1,-8.360404E-1,1E0,-1.1722676E0,-5.2145106E-1,5.620357E-2,-9.066023E-2,3.6843893E-1,1.1263231E-1,-1.5347342E-1,5.747062E-2,3.5992986E-1,6.4099663E-1,-3.6787774E-2,6.8665E-1,1.9529644E-1,-5.865666E-2,2.7025582E-3],"split_indices":[40,24,39,23,39,40,39,2,21,39,21,0,40,0,39,0,0,0,0,0,0,0,0,0,0,0,0,0,0],"split_type":[0,0,0,0,0,0,0,0,0,0,0,0,0,0,0,0,0,0,0,0,0,0,0,0,0,0,0,0,0],"sum_hessian":[1.0296345E3,2.8979586E1,1.00065497E3,7.1894855E0,2.17901E1,1.5314271E1,9.853407E2,3.5590882E0,3.6303973E0,1.7327837E1,4.462262E0,8.320009E0,6.9942613E0,5.897398E0,9.794433E2,1.957922E0,1.6011662E0,1.8600165E0,1.7703807E0,1.601729E1,1.3105481E0,2.380944E0,2.0813184E0,1.3807279E0,5.6135335E0,3.0599725E0,2.8374255E0,9.397674E1,8.8546655E2],"tree_param":{"num_deleted":"0","num_feature":"41","num_nodes":"29","size_leaf_vector":"1"}},{"base_weights":[1.6187067E-4,-3.936705E-1,2.9640421E-3,-1.7079E-1,-2.7236107E-1,2.827988E-1,4.9685285E-4,-1.03342034E-1,-2.8430762E-2,3.1872902E-2,-3.641131E-2,7.326651E-3,-2.4895307E-2,1.8500919E-3,3.4112892E-1,-2.4217175E-1,-5.2568424E-3],"categories":[],"categories_nodes":[],"categories_segments":[],"categories_sizes":[],"default_left":[0,0,0,0,0,0,0,0,0,0,0,0,0,0,0,0,0],"id":26,"left_children":[1,3,5,7,-1,-1,9,-1,11,13,15,-1,-1,-1,-1,-1,-1],"loss_changes":[1.1342075E0,3.4854066E-1,1.7721167E0,6.0259357E-2,0E0,0E0,1.179883E0,0E0,6.1800242E-3,1.2314603E1,6.1908717E0,0E0,0E0,0E0,0E0,0E0,0E0],"parents":[2147483647,0,0,1,1,2,2,3,3,6,6,8,8,9,9,10,10],"right_children":[2,4,6,8,-1,-1,10,-1,12,14,16,-1,-1,-1,-1,-1,-1],"split_conditions":[-1.5079089E0,-1.2364625E0,-1.5046022E0,1E0,-2.7236107E-1,2.827988E-1,-3.8432294E-1,-1.03342034E-1,1E0,-4.24901E-1,-1.329341E0,7.326651E-3,-2.4895307E-2,1.8500919E-3,3.4112892E-1,-2.4217175E-1,-5.2568424E-3],"split_indices":[39,38,39,21,0,0,38,0,0,38,39,0,0,0,0,0,0],"split_type":[0,0,0,0,0,0,0,0,0,0,0,0,0,0,0,0,0],"sum_hessian":[1.0256903E3,6.260906E0,1.0194294E3,4.42325E0,1.8376563E0,2.5627673E0,1.0168666E3,2.2341902E0,2.1890597E0,5.4969824E2,4.6716833E2,1.1110129E0,1.0780468E0,5.3301294E2,1.6685303E1,1.7370752E1,4.4979758E2],"tree_param":{"num_deleted":"0","num_feature":"41","num_nodes":"17","size_leaf_vector":"1"}},{"base_weights":[-3.6562645E-4,4.9667954E-2,-2.4665607E-2,2.1792857E-2,8.2818556E-1,-2.1125531E-1,1.347565E-2,3.511598E-2,-8.718194E-1,3.3413735E-1,5.410635E-1,-4.5737195E-1,4.1880462E-2,2.8539592E-1,-7.559297E-3,3.8352255E-3,1.7776215E-1,-3.7887122E-2,-4.4183427E-1,4.4511428E-1,-2.751481E-1,-1.3214259E-1,-6.6428035E-1,5.214708E-1,-2.0091472E-2,2.4901855E-1,-2.683698E-2,-3.6506864E-1,3.9636745E-4],"categories":[],"categories_nodes":[],"categories_segments":[],"categories_sizes":[],"default_left":[0,0,0,0,0,1,0,0,0,0,0,0,0,0,0,0,0,0,0,0,0,0,0,0,0,0,0,0,0],"id":27,"left_children":[1,3,5,7,9,11,13,15,17,19,-1,21,23,25,27,-1,-1,-1,-1,-1,-1,-1,-1,-1,-1,-1,-1,-1,-1],"loss_changes":[1.2448863E0,7.2458725E0,4.907577E0,3.8902056E0,2.5391412E0,7.3100624E0,3.2804906E0,3.3431563E0,7.637975E-1,6.552608E0,0E0,8.533242E0,6.8769736E0,4.935623E0,4.12553E0,0E0,0E0,0E0,0E0,0E0,0E0,0E0,0E0,0E0,0E0,0E0,0E0,0E0,0E0],"parents":[2147483647,0,0,1,1,2,2,3,3,4,4,5,5,6,6,7,7,8,8,9,9,11,11,12,12,13,13,14,14],"right_children":[2,4,6,8,10,12,14,16,18,20,-1,22,24,26,28,-1,-1,-1,-1,-1,-1,-1,-1,-1,-1,-1,-1,-1,-1],"split_conditions":[-3.1911004E-1,-3.339907E-1,1.9179241E-1,-3.4225774E-1,-5.466352E-1,-5.9658843E-1,3.1414446E-1,8.330193E-1,-1.1147283E0,-1.1553063E0,5.410635E-1,-6.823095E-1,-5.888888E-1,1E0,3.2075807E-1,3.8352255E-3,1.7776215E-1,-3.7887122E-2,-4.4183427E-1,4.4511428E-1,-2.751481E-1,-1.3214259E-1,-6.6428035E-1,5.214708E-1,-2.0091472E-2,2.4901855E-1,-2.683698E-2,-3.6506864E-1,3.9636745E-4],"split_indices":[39,39,39,39,38,40,39,38,38,38,0,40,40,0,39,0,0,0,0,0,0,0,0,0,0,0,0,0,0],"split_type":[0,0,0,0,0,0,0,0,0,0,0,0,0,0,0,0,0,0,0,0,0,0,0,0,0,0,0,0,0],"sum_hessian":[1.0219032E3,3.3372354E2,6.881796E2,3.2317996E2,1.054358E1,1.1602728E2,5.7215234E2,3.1937897E2,3.8010094E0,6.2722645E0,4.2713156E0,5.842019E1,5.760709E1,4.0179634E1,5.319727E2,3.015917E2,1.7787243E1,1.2003857E0,2.6006238E0,3.5095675E0,2.762697E0,5.399533E1,4.4248567E0,3.0242667E0,5.4582825E1,2.0145031E1,2.0034603E1,3.9887378E0,5.27984E2],"tree_param":{"num_deleted":"0","num_feature":"41","num_nodes":"29","size_leaf_vector":"1"}},{"base_weights":[-3.879069E-4,4.4388622E-2,-2.5217338E-2,-3.4778123E-3,3.0161452E-1,1.2348752E0,-3.2575678E-2,9.98406E-2,-1.05189346E-1,4.399729E-1,-6.505055E-1,6.768407E-1,1.251532E-1,-4.6606323E-1,-1.9568715E-2,2.0960433E-2,3.3049595E-1,-1.5548234E-2,-2.6747432E-1,3.1806585E-1,3.616452E-2,-5.801413E-1,6.2891185E-2,-3.3320126E-1,7.6672934E-2,-2.0716324E-2,4.165041E-2],"categories":[],"categories_nodes":[],"categories_segments":[],"categories_sizes":[],"default_left":[0,0,0,0,0,0,0,1,0,0,0,0,0,0,0,0,0,0,0,0,0,0,0,0,0,0,0],"id":28,"left_children":[1,3,5,7,9,11,13,15,17,19,21,-1,-1,23,25,-1,-1,-1,-1,-1,-1,-1,-1,-1,-1,-1,-1],"loss_changes":[1.1397283E0,4.5035524E0,6.1547675E0,3.26085E0,7.845676E0,1.0953507E0,3.6929984E0,5.261884E0,5.816857E0,6.2231054E0,5.192601E0,0E0,0E0,4.7655673E0,2.550311E0,0E0,0E0,0E0,0E0,0E0,0E0,0E0,0E0,0E0,0E0,0E0,0E0],"parents":[2147483647,0,0,1,1,2,2,3,3,4,4,5,5,6,6,7,7,8,8,9,9,10,10,13,13,14,14],"right_children":[2,4,6,8,10,12,14,16,18,20,22,-1,-1,24,26,-1,-1,-1,-1,-1,-1,-1,-1,-1,-1,-1,-1],"split_conditions":[-8.712598E-1,1E0,-9.0282863E-1,1E0,1E0,-8.3068174E-1,-8.3068174E-1,-7.157255E-1,1E0,1E0,4.612976E-1,6.768407E-1,1.251532E-1,1E0,1E0,2.0960433E-2,3.3049595E-1,-1.5548234E-2,-2.6747432E-1,3.1806585E-1,3.616452E-2,-5.801413E-1,6.2891185E-2,-3.3320126E-1,7.6672934E-2,-2.0716324E-2,4.165041E-2],"split_indices":[38,14,40,0,22,38,38,40,16,23,39,0,0,6,33,0,0,0,0,0,0,0,0,0,0,0,0],"split_type":[0,0,0,0,0,0,0,0,0,0,0,0,0,0,0,0,0,0,0,0,0,0,0,0,0,0,0],"sum_hessian":[1.02313544E3,3.6468588E2,6.584496E2,3.0830142E2,5.6384457E1,2.8542159E0,6.5559534E2,1.5295172E2,1.5534972E2,4.970013E1,6.684328E0,1.3496449E0,1.5045711E0,1.8083643E1,6.375117E2,1.4458157E2,8.37016E0,1.39948E2,1.5401713E1,2.4019264E1,2.5680866E1,2.958815E0,3.725513E0,1.1436855E1,6.646788E0,5.062234E2,1.3128831E2],"tree_param":{"num_deleted":"0","num_feature":"41","num_nodes":"27","size_leaf_vector":"1"}},{"base_weights":[7.1689603E-4,-1.3849464E-2,6.591995E-2,-8.171188E-3,-5.959086E-1,9.6710004E-2,-5.553942E-1,-1.1572349E-2,6.453822E-1,1.6655478E-1,-1.1421868E0,3.2575655E-1,3.9975505E-2,1.0362249E-1,-5.128165E-1,-7.0643163E-4,-1.6289185E-1,5.477602E-1,-3.3549818E-1,3.024444E-1,-2.4188356E-1,-1.4482836E-1,-5.47506E-1,3.49847E-1,-7.288036E-2,-4.3502665E-1,2.562916E-2,-2.89368E-1,1.9603123E-1],"categories":[],"categories_nodes":[],"categories_segments":[],"categories_sizes":[],"default_left":[0,0,0,1,0,0,0,0,0,0,0,0,0,0,0,0,0,0,0,0,0,0,0,0,0,0,0,0,0],"id":29,"left_children":[1,3,5,7,9,11,13,15,17,19,21,23,25,27,-1,-1,-1,-1,-1,-1,-1,-1,-1,-1,-1,-1,-1,-1,-1],"loss_changes":[9.698941E-1,2.7540672E0,3.6209931E0,1.8473185E0,3.543555E0,2.3068156E0,4.4201427E0,3.1978862E0,5.772052E0,2.3820868E0,3.5596085E-1,1.0001113E1,3.9882407E0,2.1508164E0,0E0,0E0,0E0,0E0,0E0,0E0,0E0,0E0,0E0,0E0,0E0,0E0,0E0,0E0,0E0],"parents":[2147483647,0,0,1,1,2,2,3,3,4,4,5,5,6,6,7,7,8,8,9,9,10,10,11,11,12,12,13,13],"right_children":[2,4,6,8,10,12,14,16,18,20,22,24,26,28,-1,-1,-1,-1,-1,-1,-1,-1,-1,-1,-1,-1,-1,-1,-1],"split_conditions":[1.1011658E0,1.0548704E0,1E0,1.8188268E0,3.4608242E-1,1.1656486E0,4.6781665E-1,1.3855754E0,1E0,1E0,1E0,6.5535384E-1,1E0,1.2615461E0,-5.128165E-1,-7.0643163E-4,-1.6289185E-1,5.477602E-1,-3.3549818E-1,3.024444E-1,-2.4188356E-1,-1.4482836E-1,-5.47506E-1,3.49847E-1,-7.288036E-2,-4.3502665E-1,2.562916E-2,-2.89368E-1,1.9603123E-1],"split_indices":[39,39,24,40,38,39,38,40,0,34,12,40,18,39,0,0,0,0,0,0,0,0,0,0,0,0,0,0,0],"split_type":[0,0,0,0,0,0,0,0,0,0,0,0,0,0,0,0,0,0,0,0,0,0,0,0,0,0,0,0,0],"sum_hessian":[1.0192259E3,8.3375305E2,1.8547282E2,8.267022E2,7.0508537E0,1.7751993E2,7.9528937E0,8.233995E2,3.302765E0,3.2332213E0,3.8176324E0,3.4300674E1,1.4321927E2,4.6201477E0,3.332746E0,8.0446545E2,1.8934017E1,2.2717936E0,1.0309714E0,1.8436084E0,1.389613E0,1.4439747E0,2.3736577E0,1.6139597E1,1.8161077E1,2.0733416E0,1.4114592E2,1.193671E0,3.4264767E0],"tree_param":{"num_deleted":"0","num_feature":"41","num_nodes":"29","size_leaf_vector":"1"}},{"base_weights":[-6.710086E-4,3.8012248E-3,-2.1415448E-1,-7.4187773E-3,1.5915076E-1,-6.695994E-1,-5.49819E-2,7.2363287E-4,-3.0555162E-1,-6.226239E-2,5.665167E-1,1.7033082E-1,-4.344631E-1,-2.8219253E-1,5.9698988E-2,-2.145775E-3,2.7314556E-1,-3.7188944E-1,4.548756E-2,2.0241711E-2,-2.4487515E-1,3.686145E-1,-6.0423505E-2,1.323063E-1,-9.717834E-2],"categories":[],"categories_nodes":[],"categories_segments":[],"categories_sizes":[],"default_left":[0,0,0,0,0,0,0,1,0,0,0,0,0,0,0,0,0,0,0,0,0,0,0,0,0],"id":30,"left_children":[1,3,5,7,9,11,13,15,17,19,21,-1,-1,-1,23,-1,-1,-1,-1,-1,-1,-1,-1,-1,-1],"loss_changes":[9.701546E-1,1.7362446E0,1.4746956E0,2.2562075E0,6.0870986E0,2.8856328E0,1.2759836E0,3.7646654E0,6.5720134E0,2.7849796E0,6.1834188E0,0E0,0E0,0E0,1.3095088E0,0E0,0E0,0E0,0E0,0E0,0E0,0E0,0E0,0E0,0E0],"parents":[2147483647,0,0,1,1,2,2,3,3,4,4,5,5,6,6,7,7,8,8,9,9,10,10,14,14],"right_children":[2,4,6,8,10,12,14,16,18,20,22,-1,-1,-1,24,-1,-1,-1,-1,-1,-1,-1,-1,-1,-1],"split_conditions":[1.5634247E0,1.2793782E0,1E0,1.1170658E0,1E0,1E0,1E0,1.6420842E0,1E0,1E0,1.4416904E0,1.7033082E-1,-4.344631E-1,-2.8219253E-1,1E0,-2.145775E-3,2.7314556E-1,-3.7188944E-1,4.548756E-2,2.0241711E-2,-2.4487515E-1,3.686145E-1,-6.0423505E-2,1.323063E-1,-9.717834E-2],"split_indices":[38,38,2,38,22,12,18,40,23,34,38,0,0,0,16,0,0,0,0,0,0,0,0,0,0],"split_type":[0,0,0,0,0,0,0,0,0,0,0,0,0,0,0,0,0,0,0,0,0,0,0,0,0],"sum_hessian":[1.01428424E3,9.944342E2,1.985006E1,9.2833795E2,6.609625E1,4.310255E0,1.5539804E1,9.046289E2,2.3709063E1,4.3370506E1,2.272575E1,1.1813639E0,3.128891E0,1.5569118E0,1.3982893E1,8.976099E2,7.0189905E0,9.037448E0,1.4671616E1,3.6738316E1,6.6321893E0,1.5013571E1,7.7121797E0,7.327252E0,6.6556406E0],"tree_param":{"num_deleted":"0","num_feature":"41","num_nodes":"25","size_leaf_vector":"1"}},{"base_weights":[-1.531725E-3,5.4525957E-2,-1.78299E-2,2.576535E-2,5.594944E-1,3.2139355E-1,-2.367805E-2,4.1141417E-2,-3.6679775E-1,-9.298769E-2,9.4102794E-1,1.8625397E-2,7.032122E-1,-6.0793185E-1,-1.0119297E-2,2.8626804E-4,1.3094558E-1,-2.0979594E-1,2.3128812E-1,2.4078743E-1,5.6469864E-1,1.3469079E-1,-3.1744286E-1,-2.9465461E-2,-3.9514446E-1,1.5375613E-1,-1.0243689E-2],"categories":[],"categories_nodes":[],"categories_segments":[],"categories_sizes":[],"default_left":[0,0,0,0,0,0,0,0,0,0,0,0,0,0,0,0,0,0,0,0,0,0,0,0,0,0,0],"id":31,"left_children":[1,3,5,7,9,11,13,15,-1,17,19,21,-1,23,25,-1,-1,-1,-1,-1,-1,-1,-1,-1,-1,-1,-1],"loss_changes":[9.258337E-1,3.3007045E0,1.5649575E0,3.183515E0,3.1375592E0,5.784025E0,6.1145744E0,2.4815347E0,0E0,1.8761913E0,3.9844036E-1,3.382125E0,0E0,3.4809136E0,4.6305623E0,0E0,0E0,0E0,0E0,0E0,0E0,0E0,0E0,0E0,0E0,0E0,0E0],"parents":[2147483647,0,0,1,1,2,2,3,3,4,4,5,5,6,6,7,7,9,9,10,10,11,11,13,13,14,14],"right_children":[2,4,6,8,10,12,14,16,-1,18,20,22,-1,24,26,-1,-1,-1,-1,-1,-1,-1,-1,-1,-1,-1,-1],"split_conditions":[-9.06384E-1,-9.120333E-1,-1.4913749E0,-9.118379E-1,-1.1147283E0,-5.5211383E-1,-1.4616135E0,3.554796E-1,-3.6679775E-1,1E0,-8.712598E-1,-5.9698332E-2,7.032122E-1,-5.466352E-1,-1.1276256E0,2.8626804E-4,1.3094558E-1,-2.0979594E-1,2.3128812E-1,2.4078743E-1,5.6469864E-1,1.3469079E-1,-3.1744286E-1,-2.9465461E-2,-3.9514446E-1,1.5375613E-1,-1.0243689E-2],"split_indices":[40,40,39,38,38,40,39,39,0,2,38,38,0,38,39,0,0,0,0,0,0,0,0,0,0,0,0],"split_type":[0,0,0,0,0,0,0,0,0,0,0,0,0,0,0,0,0,0,0,0,0,0,0,0,0,0,0],"sum_hessian":[1.0112846E3,2.2726378E2,7.840208E2,2.160118E2,1.1251983E1,1.2372869E1,7.7164795E2,2.1348627E2,2.525522E0,4.430837E0,6.821146E0,1.1055839E1,1.3170298E0,1.6507198E1,7.5514075E2,1.879438E2,2.5542469E1,2.830056E0,1.6007811E0,5.289756E0,1.5313901E0,8.365152E0,2.6906857E0,7.356354E0,9.150844E0,2.7629723E1,7.2751105E2],"tree_param":{"num_deleted":"0","num_feature":"41","num_nodes":"27","size_leaf_vector":"1"}},{"base_weights":[-1.2611377E-3,8.963533E-3,-9.243314E-2,-2.721069E-1,1.3068949E-2,6.6630594E-2,-2.5996742E-1,-4.291697E-1,3.1375983E-1,2.1069759E-1,6.9148425E-4,-8.557644E-2,8.0052865E-1,-6.1087036E-1,-6.0506273E-2,2.2966352E-3,-3.7367818E-1,1.2295999E-1,-2.3361304E-1,-4.6900588E-1,2.9012861E-3,7.0856297E-3,-3.6913493E-1,3.9318505E-1,3.2463927E-2,6.8636045E-2,-3.193135E-1,3.2016665E-1,-8.3221495E-2],"categories":[],"categories_nodes":[],"categories_segments":[],"categories_sizes":[],"default_left":[0,0,0,0,0,0,1,0,0,0,0,0,0,0,0,0,0,0,0,0,0,0,0,0,0,0,0,0,0],"id":32,"left_children":[1,3,5,7,9,11,13,15,-1,17,19,21,23,25,27,-1,-1,-1,-1,-1,-1,-1,-1,-1,-1,-1,-1,-1,-1],"loss_changes":[9.430687E-1,1.0533315E0,2.7358117E0,2.517517E0,2.1955385E0,6.002811E0,3.4547284E0,2.6604161E0,0E0,4.245069E0,6.5190077E0,3.8996208E0,1.1304827E0,2.7721705E0,4.3479114E0,0E0,0E0,0E0,0E0,0E0,0E0,0E0,0E0,0E0,0E0,0E0,0E0,0E0,0E0],"parents":[2147483647,0,0,1,1,2,2,3,3,4,4,5,5,6,6,7,7,9,9,10,10,11,11,12,12,13,13,14,14],"right_children":[2,4,6,8,10,12,14,16,-1,18,20,22,24,26,28,-1,-1,-1,-1,-1,-1,-1,-1,-1,-1,-1,-1,-1,-1],"split_conditions":[1E0,-1.4996419E0,-7.715642E-1,3.4608242E-1,-1.4731874E0,-8.4219134E-1,-5.442179E-1,-1.2364625E0,3.1375983E-1,1E0,-1.4698806E0,2.0005944E-1,-5.872133E-1,-9.118379E-1,-5.095368E-1,2.2966352E-3,-3.7367818E-1,1.2295999E-1,-2.3361304E-1,-4.6900588E-1,2.9012861E-3,7.0856297E-3,-3.6913493E-1,3.9318505E-1,3.2463927E-2,6.8636045E-2,-3.193135E-1,3.2016665E-1,-8.3221495E-2],"split_indices":[3,39,40,38,39,40,40,38,0,22,39,39,38,38,40,0,0,0,0,0,0,0,0,0,0,0,0,0,0],"split_type":[0,0,0,0,0,0,0,0,0,0,0,0,0,0,0,0,0,0,0,0,0,0,0,0,0,0,0,0,0],"sum_hessian":[1.0097665E3,9.087541E2,1.010124E2,1.2142728E1,8.966113E2,5.2125065E1,4.8887333E1,1.1088124E1,1.0546033E0,5.1900658E1,8.447107E2,4.390315E1,8.221914E0,1.6970062E1,3.191727E1,6.4888096E0,4.5993147E0,4.681717E1,5.0834885E0,3.709892E0,8.410008E2,3.9953094E1,3.9500573E0,6.2663307E0,1.955583E0,3.2955208E0,1.3674541E1,4.0223722E0,2.7894897E1],"tree_param":{"num_deleted":"0","num_feature":"41","num_nodes":"29","size_leaf_vector":"1"}},{"base_weights":[-2.327995E-3,-4.736894E-3,3.080928E-1,-2.7477026E-3,-3.4802648E-1,1.0952054E0,-2.5702336E-1,-6.367974E-4,-4.3453094E-1,5.461485E-1,1.0259447E-1,-3.4481457E-1,1.6076742E-1,-1.1727884E-3,1.8088514E-1,-3.3656994E-1,1.527077E-1,-7.668824E-2,2.3376413E-1],"categories":[],"categories_nodes":[],"categories_segments":[],"categories_sizes":[],"default_left":[0,0,0,0,0,0,0,0,0,0,0,0,0,0,0,0,0,0,0],"id":33,"left_children":[1,3,5,7,-1,9,11,13,15,-1,-1,-1,17,-1,-1,-1,-1,-1,-1],"loss_changes":[7.5441885E-1,1.7192037E0,3.7371829E0,9.101534E-1,0E0,4.2855978E-1,1.4863749E0,1.0355173E0,1.9348338E0,0E0,0E0,0E0,7.0889366E-1,0E0,0E0,0E0,0E0,0E0,0E0],"parents":[2147483647,0,0,1,1,2,2,3,3,5,5,6,6,7,7,8,8,12,12],"right_children":[2,4,6,8,-1,10,12,14,16,-1,-1,-1,18,-1,-1,-1,-1,-1,-1],"split_conditions":[1.6732442E0,1.6434829E0,1E0,2.3953393E0,-3.4802648E-1,1E0,1.6980453E0,2.3423798E0,1E0,5.461485E-1,1.0259447E-1,-3.4481457E-1,1E0,-1.1727884E-3,1.8088514E-1,-3.3656994E-1,1.527077E-1,-7.668824E-2,2.3376413E-1],"split_indices":[39,39,21,40,0,2,39,40,23,0,0,0,2,0,0,0,0,0,0],"split_type":[0,0,0,0,0,0,0,0,0,0,0,0,0,0,0,0,0,0,0],"sum_hessian":[1.0059367E3,9.991678E2,6.76891E0,9.978771E2,1.2907127E0,2.4368148E0,4.332095E0,9.94019E2,3.858093E0,1.3681775E0,1.0686373E0,1.3352159E0,2.9968793E0,9.8999493E2,4.024057E0,2.5541632E0,1.3039297E0,1.9346337E0,1.0622457E0],"tree_param":{"num_deleted":"0","num_feature":"41","num_nodes":"19","size_leaf_vector":"1"}},{"base_weights":[-1.5019154E-3,2.6765014E-3,-1.4632982E-1,-3.7446925E-3,2.2037835E-1,-2.5272197E-1,3.4803632E-1,3.6404578E-3,-6.4035505E-1,-4.593364E-1,6.015348E-1,-1.8260303E-1,-2.899625E-1,3.4291664E-1,-7.108433E-2,-1.6424954E-3,1.1086445E-1,-6.2309016E-2,-5.015629E-1,3.227805E-1,-3.4420487E-1,3.2378584E-1,6.619662E-2,-1.1646005E-1,1.0361582E-1],"categories":[],"categories_nodes":[],"categories_segments":[],"categories_sizes":[],"default_left":[0,1,0,0,0,0,0,0,0,0,0,0,0,0,0,0,0,0,0,0,0,0,0,0,0],"id":34,"left_children":[1,3,5,7,9,11,13,15,17,19,21,23,-1,-1,-1,-1,-1,-1,-1,-1,-1,-1,-1,-1,-1],"loss_changes":[6.0931045E-1,1.3693628E0,1.5729928E0,4.477777E0,7.547348E0,6.5607333E-1,1.6037351E0,1.9971333E0,3.0519862E0,6.1048503E0,1.535634E0,1.1334909E0,0E0,0E0,0E0,0E0,0E0,0E0,0E0,0E0,0E0,0E0,0E0,0E0,0E0],"parents":[2147483647,0,0,1,1,2,2,3,3,4,4,5,5,6,6,7,7,8,8,9,9,10,10,11,11],"right_children":[2,4,6,8,10,12,14,16,18,20,22,24,-1,-1,-1,-1,-1,-1,-1,-1,-1,-1,-1,-1,-1],"split_conditions":[1.5228466E0,1.9777052E0,2.4915955E0,1.8188268E0,1E0,2.3953393E0,2.5407598E0,1.2793782E0,1E0,1.2962676E0,1E0,1.4053924E0,-2.899625E-1,3.4291664E-1,-7.108433E-2,-1.6424954E-3,1.1086445E-1,-6.2309016E-2,-5.015629E-1,3.227805E-1,-3.4420487E-1,3.2378584E-1,6.619662E-2,-1.1646005E-1,1.0361582E-1],"split_indices":[38,40,40,40,0,40,40,38,16,39,10,39,0,0,0,0,0,0,0,0,0,0,0,0,0],"split_type":[0,0,0,0,0,0,0,0,0,0,0,0,0,0,0,0,0,0,0,0,0,0,0,0,0],"sum_hessian":[1.0052257E3,9.779913E2,2.7234419E1,9.5092615E2,2.706511E1,2.2813532E1,4.420886E0,9.410041E2,9.922062E0,9.650427E0,1.7414682E1,2.10712E1,1.7423335E0,1.9253325E0,2.4955537E0,9.1604474E2,2.495938E1,6.24425E0,3.6778119E0,2.0784516E0,7.5719757E0,1.1211855E1,6.202826E0,1.7187584E1,3.8836148E0],"tree_param":{"num_deleted":"0","num_feature":"41","num_nodes":"25","size_leaf_vector":"1"}},{"base_weights":[-1.2353056E-3,-3.0190066E-1,7.636842E-4,-2.4921691E-1,-1.2940575E-1,1.0917961E-1,-5.3521423E-3,-2.4405572E-1,1.5833812E-2,4.24843E-2,3.7185496E-1,-4.9290052E-1,4.5521968E-4,-3.3233318E-1,1.7461649E-1,-4.3087047E-2,1.0339798E-1,2.2340609E-2,-3.6867848E-1,1.6581449E-1,-1.168824E-3],"categories":[],"categories_nodes":[],"categories_segments":[],"categories_sizes":[],"default_left":[0,0,0,0,0,0,1,0,0,0,0,0,0,0,0,0,0,0,0,0,0],"id":35,"left_children":[1,3,5,-1,7,9,11,13,-1,15,-1,17,19,-1,-1,-1,-1,-1,-1,-1,-1],"loss_changes":[6.0379815E-1,2.8692704E-1,6.6270375E-1,0E0,1.1774638E-1,2.8809514E0,2.679329E0,1.7457879E0,0E0,1.6632664E0,0E0,2.6725216E0,1.3102925E0,0E0,0E0,0E0,0E0,0E0,0E0,0E0,0E0],"parents":[2147483647,0,0,1,1,2,2,4,4,5,5,6,6,7,7,9,9,11,11,12,12],"right_children":[2,4,6,-1,8,10,12,14,-1,16,-1,18,20,-1,-1,-1,-1,-1,-1,-1,-1],"split_conditions":[-1.5079089E0,1E0,-9.869357E-1,-2.4921691E-1,1E0,1E0,-9.8580146E-1,-1.5128691E0,1.5833812E-2,-1.4698806E0,3.7185496E-1,1E0,-9.853652E-1,-3.3233318E-1,1.7461649E-1,-4.3087047E-2,1.0339798E-1,2.2340609E-2,-3.6867848E-1,1.6581449E-1,-1.168824E-3],"split_indices":[39,24,40,0,21,1,40,39,0,39,0,0,40,0,0,0,0,0,0,0,0],"split_type":[0,0,0,0,0,0,0,0,0,0,0,0,0,0,0,0,0,0,0,0,0],"sum_hessian":[1.00322705E3,5.6350837E0,9.97592E2,1.0563965E0,4.5786877E0,5.237007E1,9.452219E2,2.4632902E0,2.1153972E0,4.9405647E1,2.964422E0,1.0139038E1,9.350829E2,1.2042788E0,1.2590114E0,2.9437654E1,1.9967993E1,4.828941E0,5.3100977E0,6.5800047E0,9.2850287E2],"tree_param":{"num_deleted":"0","num_feature":"41","num_nodes":"21","size_leaf_vector":"1"}},{"base_weights":[-5.6080695E-4,-4.3757655E-2,1.150197E-2,6.686651E-2,-1.8635926E-1,2.8248724E-1,-3.2720312E-3,-3.82717E-2,4.9359113E-1,-7.44209E-2,-6.5096754E-1,5.462909E-1,-4.8961365E-1,-5.480208E-1,1.9042555E-3,1.2033899E-2,-4.3587995E-1,2.6232696E-1,-3.2582012E-1,-7.012802E-2,1.0779636E-1,-3.9059314E-1,6.0266968E-2,2.5590807E-1,-3.713385E-1,-5.5440705E-2,-5.185663E-1,7.7030234E-2,-4.2378805E-3],"categories":[],"categories_nodes":[],"categories_segments":[],"categories_sizes":[],"default_left":[0,0,0,1,0,0,1,0,0,0,0,0,0,0,0,0,0,0,0,0,0,0,0,0,0,0,0,0,0],"id":36,"left_children":[1,3,5,7,9,11,13,15,17,19,21,23,25,-1,27,-1,-1,-1,-1,-1,-1,-1,-1,-1,-1,-1,-1,-1,-1],"loss_changes":[5.232308E-1,3.470281E0,3.1436188E0,5.5899053E0,4.945362E0,8.5361E0,5.2760854E0,7.2598157E0,5.7585673E0,2.771481E0,4.978169E0,4.830018E0,2.8973737E0,0E0,1.7741117E0,0E0,0E0,0E0,0E0,0E0,0E0,0E0,0E0,0E0,0E0,0E0,0E0,0E0,0E0],"parents":[2147483647,0,0,1,1,2,2,3,3,4,4,5,5,6,6,7,7,8,8,9,9,10,10,11,11,12,12,14,14],"right_children":[2,4,6,8,10,12,14,16,18,20,22,24,26,-1,28,-1,-1,-1,-1,-1,-1,-1,-1,-1,-1,-1,-1,-1,-1],"split_conditions":[-6.547515E-1,1E0,-5.1751876E-1,-7.1989155E-1,-6.068401E-1,1E0,-9.8379475E-1,-8.137267E-1,-2.999455E-1,-8.203794E-1,9.547535E-1,1E0,-6.134163E-1,-5.480208E-1,-9.531053E-1,1.2033899E-2,-4.3587995E-1,2.6232696E-1,-3.2582012E-1,-7.012802E-2,1.0779636E-1,-3.9059314E-1,6.0266968E-2,2.5590807E-1,-3.713385E-1,-5.5440705E-2,-5.185663E-1,7.7030234E-2,-4.2378805E-3],"split_indices":[39,21,39,40,40,24,40,40,40,40,38,26,39,0,40,0,0,0,0,0,0,0,0,0,0,0,0,0,0],"split_type":[0,0,0,0,0,0,0,0,0,0,0,0,0,0,0,0,0,0,0,0,0,0,0,0,0,0,0,0,0],"sum_hessian":[1.0021732E3,2.181936E2,7.839796E2,1.2317267E2,9.502094E1,3.9595573E1,7.4438403E2,9.955436E1,2.361831E1,7.750725E1,1.751369E1,2.9730143E1,9.865432E0,1.8136654E0,7.425704E2,9.438922E1,5.165135E0,2.1456139E1,2.1621706E0,6.030483E1,1.7202421E1,1.2300701E1,5.21299E0,2.8490255E1,1.2398862E0,7.691093E0,2.174339E0,4.4796307E1,6.977741E2],"tree_param":{"num_deleted":"0","num_feature":"41","num_nodes":"29","size_leaf_vector":"1"}},{"base_weights":[-2.9167945E-3,-2.3966206E-2,2.7497958E-2,4.6957363E-3,-2.7322814E-1,1.1502012E-1,-8.135532E-2,-2.5114588E-2,5.864402E-1,4.999741E-2,-6.3603675E-1,6.718706E-2,4.2714337E-1,-6.302646E-1,-4.042431E-2,-1.3804013E-2,5.06396E-1,5.6189906E-2,4.041061E-1,2.0724742E-1,-1.0976966E-1,-4.7706547E-1,-1.8882705E-3,4.775874E-2,-2.7772895E-1,3.5896632E-1,9.1567636E-2,-1.1998463E-1,-6.4996356E-1,3.4652123E-1,-2.5436888E-2],"categories":[],"categories_nodes":[],"categories_segments":[],"categories_sizes":[],"default_left":[0,0,0,0,0,0,1,0,0,0,0,0,0,0,0,0,0,0,0,0,0,0,0,0,0,0,0,0,0,0,0],"id":37,"left_children":[1,3,5,7,9,11,13,15,17,19,21,23,25,27,29,-1,-1,-1,-1,-1,-1,-1,-1,-1,-1,-1,-1,-1,-1,-1,-1],"loss_changes":[6.411078E-1,4.2288785E0,3.9119096E0,9.235444E0,7.1901846E0,3.367472E0,4.089468E0,6.1906986E0,4.7645903E0,5.1856427E0,1.0126529E1,7.972293E0,2.5950289E0,3.6655836E0,3.6580129E0,0E0,0E0,0E0,0E0,0E0,0E0,0E0,0E0,0E0,0E0,0E0,0E0,0E0,0E0,0E0,0E0],"parents":[2147483647,0,0,1,1,2,2,3,3,4,4,5,5,6,6,7,7,8,8,9,9,10,10,11,11,12,12,13,13,14,14],"right_children":[2,4,6,8,10,12,14,16,18,20,22,24,26,28,30,-1,-1,-1,-1,-1,-1,-1,-1,-1,-1,-1,-1,-1,-1,-1,-1],"split_conditions":[1E0,6.861608E-1,1E0,6.249848E-1,1E0,1.2615461E0,-7.362506E-1,1E0,-1.9120257E-2,-5.0605714E-1,6.95357E-1,1.1722622E0,5.0908273E-1,1E0,-9.118379E-1,-1.3804013E-2,5.06396E-1,5.6189906E-2,4.041061E-1,2.0724742E-1,-1.0976966E-1,-4.7706547E-1,-1.8882705E-3,4.775874E-2,-2.7772895E-1,3.5896632E-1,9.1567636E-2,-1.1998463E-1,-6.4996356E-1,3.4652123E-1,-2.5436888E-2],"split_indices":[18,39,12,39,0,39,40,36,38,38,40,39,40,10,38,0,0,0,0,0,0,0,0,0,0,0,0,0,0,0,0],"split_type":[0,0,0,0,0,0,0,0,0,0,0,0,0,0,0,0,0,0,0,0,0,0,0,0,0,0,0,0,0,0,0],"sum_hessian":[9.993688E2,5.907412E2,4.0862756E2,5.306988E2,6.0042423E1,2.2647578E2,1.8215178E2,5.0573996E2,2.4958797E1,3.220936E1,2.7833067E1,1.9743416E2,2.9041636E1,1.1640986E1,1.7051079E2,5.030525E2,2.6874716E0,1.2810514E1,1.2148284E1,1.2940266E1,1.9269093E1,1.4318966E1,1.3514101E1,1.8555551E2,1.1878646E1,7.56558E0,2.1476055E1,9.716044E0,1.9249419E0,3.341498E0,1.671693E2],"tree_param":{"num_deleted":"0","num_feature":"41","num_nodes":"31","size_leaf_vector":"1"}},{"base_weights":[-4.7030585E-4,1.23893365E-1,-5.134179E-3,2.6211875E-2,3.5112098E-1,-3.541857E-1,1.7469999E-4,1.3304853E-1,-4.3221098E-1,-3.8520417E-1,1.6699195E-1,5.794708E-1,-6.768285E-3,-1.9534534E-2,1.7427291E-1,3.7884137E-1,-7.095108E-2,4.8653385E-1,4.6549803E-3,-3.3409277E-1,-1.6859157E-3],"categories":[],"categories_nodes":[],"categories_segments":[],"categories_sizes":[],"default_left":[0,0,0,0,0,0,0,0,0,0,0,0,0,0,0,0,0,0,0,0,0],"id":38,"left_children":[1,3,5,7,-1,9,11,13,-1,-1,15,17,19,-1,-1,-1,-1,-1,-1,-1,-1],"loss_changes":[5.791336E-1,2.6348739E0,1.7832547E0,4.0436115E0,0E0,4.7354503E0,3.8203306E0,1.7259593E0,0E0,0E0,2.483703E0,4.0539565E0,1.9821174E0,0E0,0E0,0E0,0E0,0E0,0E0,0E0,0E0],"parents":[2147483647,0,0,1,1,2,2,3,3,5,5,6,6,7,7,10,10,11,11,12,12],"right_children":[2,4,6,8,-1,10,12,14,-1,-1,16,18,20,-1,-1,-1,-1,-1,-1,-1,-1],"split_conditions":[-9.9657655E-1,-1.4698806E0,-1.4946817E0,-1.4748409E0,3.5112098E-1,-8.5660905E-1,-1.4897215E0,1E0,-4.3221098E-1,-3.8520417E-1,-8.360404E-1,-9.422429E-1,-1.4880681E0,-1.9534534E-2,1.7427291E-1,3.7884137E-1,-7.095108E-2,4.8653385E-1,4.6549803E-3,-3.3409277E-1,-1.6859157E-3],"split_indices":[40,39,39,39,0,40,39,21,0,0,40,40,39,0,0,0,0,0,0,0,0],"split_type":[0,0,0,0,0,0,0,0,0,0,0,0,0,0,0,0,0,0,0,0,0],"sum_hessian":[9.9638135E2,3.5091473E1,9.6128986E2,3.198239E1,3.109084E0,1.3417116E1,9.4787274E2,2.9969166E1,2.0132244E0,5.7972164E0,7.6198997E0,1.0249296E1,9.376235E2,1.9242767E1,1.0726399E1,1.7975653E0,5.8223343E0,4.2926903E0,5.9566064E0,1.8790699E0,9.357444E2],"tree_param":{"num_deleted":"0","num_feature":"41","num_nodes":"21","size_leaf_vector":"1"}}]},"name":"gbtree"},"learner_model_param":{"base_score":"[5.00981E-1]","boost_from_average":"1","num_class":"0","num_feature":"41","num_target":"1"},"objective":{"name":"binary:logistic","reg_loss_param":{"scale_pos_weight":"2.77999997"}}},"version":[3,2,0]}